{"learner":{"attributes":{"scikit_learn":"{\"_estimator_type\": \"regressor\"}"},"feature_names":["observed_points","distance_to_destination","distance_from_start","progress_ratio","recent_speed_avg_kmh","avg_speed_since_start_kmh"],"feature_types":["int","float","float","float","float","float"],"gradient_booster":{"model":{"cats":{"enc":[],"feature_segments":[],"sorted_idx":[]},"gbtree_model_param":{"num_parallel_tree":"1","num_trees":"500"},"iteration_indptr":[0,1,2,3,4,5,6,7,8,9,10,11,12,13,14,15,16,17,18,19,20,21,22,23,24,25,26,27,28,29,30,31,32,33,34,35,36,37,38,39,40,41,42,43,44,45,46,47,48,49,50,51,52,53,54,55,56,57,58,59,60,61,62,63,64,65,66,67,68,69,70,71,72,73,74,75,76,77,78,79,80,81,82,83,84,85,86,87,88,89,90,91,92,93,94,95,96,97,98,99,100,101,102,103,104,105,106,107,108,109,110,111,112,113,114,115,116,117,118,119,120,121,122,123,124,125,126,127,128,129,130,131,132,133,134,135,136,137,138,139,140,141,142,143,144,145,146,147,148,149,150,151,152,153,154,155,156,157,158,159,160,161,162,163,164,165,166,167,168,169,170,171,172,173,174,175,176,177,178,179,180,181,182,183,184,185,186,187,188,189,190,191,192,193,194,195,196,197,198,199,200,201,202,203,204,205,206,207,208,209,210,211,212,213,214,215,216,217,218,219,220,221,222,223,224,225,226,227,228,229,230,231,232,233,234,235,236,237,238,239,240,241,242,243,244,245,246,247,248,249,250,251,252,253,254,255,256,257,258,259,260,261,262,263,264,265,266,267,268,269,270,271,272,273,274,275,276,277,278,279,280,281,282,283,284,285,286,287,288,289,290,291,292,293,294,295,296,297,298,299,300,301,302,303,304,305,306,307,308,309,310,311,312,313,314,315,316,317,318,319,320,321,322,323,324,325,326,327,328,329,330,331,332,333,334,335,336,337,338,339,340,341,342,343,344,345,346,347,348,349,350,351,352,353,354,355,356,357,358,359,360,361,362,363,364,365,366,367,368,369,370,371,372,373,374,375,376,377,378,379,380,381,382,383,384,385,386,387,388,389,390,391,392,393,394,395,396,397,398,399,400,401,402,403,404,405,406,407,408,409,410,411,412,413,414,415,416,417,418,419,420,421,422,423,424,425,426,427,428,429,430,431,432,433,434,435,436,437,438,439,440,441,442,443,444,445,446,447,448,449,450,451,452,453,454,455,456,457,458,459,460,461,462,463,464,465,466,467,468,469,470,471,472,473,474,475,476,477,478,479,480,481,482,483,484,485,486,487,488,489,490,491,492,493,494,495,496,497,498,499,500],"tree_info":[0,0,0,0,0,0,0,0,0,0,0,0,0,0,0,0,0,0,0,0,0,0,0,0,0,0,0,0,0,0,0,0,0,0,0,0,0,0,0,0,0,0,0,0,0,0,0,0,0,0,0,0,0,0,0,0,0,0,0,0,0,0,0,0,0,0,0,0,0,0,0,0,0,0,0,0,0,0,0,0,0,0,0,0,0,0,0,0,0,0,0,0,0,0,0,0,0,0,0,0,0,0,0,0,0,0,0,0,0,0,0,0,0,0,0,0,0,0,0,0,0,0,0,0,0,0,0,0,0,0,0,0,0,0,0,0,0,0,0,0,0,0,0,0,0,0,0,0,0,0,0,0,0,0,0,0,0,0,0,0,0,0,0,0,0,0,0,0,0,0,0,0,0,0,0,0,0,0,0,0,0,0,0,0,0,0,0,0,0,0,0,0,0,0,0,0,0,0,0,0,0,0,0,0,0,0,0,0,0,0,0,0,0,0,0,0,0,0,0,0,0,0,0,0,0,0,0,0,0,0,0,0,0,0,0,0,0,0,0,0,0,0,0,0,0,0,0,0,0,0,0,0,0,0,0,0,0,0,0,0,0,0,0,0,0,0,0,0,0,0,0,0,0,0,0,0,0,0,0,0,0,0,0,0,0,0,0,0,0,0,0,0,0,0,0,0,0,0,0,0,0,0,0,0,0,0,0,0,0,0,0,0,0,0,0,0,0,0,0,0,0,0,0,0,0,0,0,0,0,0,0,0,0,0,0,0,0,0,0,0,0,0,0,0,0,0,0,0,0,0,0,0,0,0,0,0,0,0,0,0,0,0,0,0,0,0,0,0,0,0,0,0,0,0,0,0,0,0,0,0,0,0,0,0,0,0,0,0,0,0,0,0,0,0,0,0,0,0,0,0,0,0,0,0,0,0,0,0,0,0,0,0,0,0,0,0,0,0,0,0,0,0,0,0,0,0,0,0,0,0,0,0,0,0,0,0,0,0,0,0,0,0,0,0,0,0,0,0,0,0,0,0,0,0,0,0,0,0,0,0,0,0,0,0,0,0,0,0,0,0,0,0,0,0,0,0,0,0,0,0,0,0,0,0,0,0,0,0,0,0,0,0,0,0,0,0,0,0,0,0],"trees":[{"base_weights":[1.7980848E-3,-3.2603197E-2,5.469614E-1,1.12458594E-1,-9.40554E-2,3.4189165E-1,8.1660897E-1,-9.716526E-2,2.6963127E-1,-1.6192798E-1,1.4428478E-1,1.7610395E-1,6.7058253E-1,9.7237754E-1,2.0447199E-1,1.5410273E-1,-1.6344646E-1,5.879958E-1,8.819824E-2,-1.1357155E-1,-1.9997181E-1,-6.567085E-2,2.143904E-1,4.1863275E-1,4.6692554E-2,7.3240256E-1,3.0230168E-1,6.9846237E-1,6.8568684E-2,4.6837005E-1,-8.433022E-2,-1.5602183E-1,2.734271E-1,-2.2064158E-1,-2.3481871E-3,-2.4662457E-2,8.778744E-1,-2.3780068E-2,2.2780828E-1,-1.3585658E-1,3.4092125E-1,-2.142271E-1,3.8763657E-2,-1.2241837E-1,3.4222806E-1,2.7618444E-1,1.4899416E-2,-2.054577E-2,4.5023537E-1,1.5193844E-1,-1.5639691E-1,6.207109E-1,8.9415216E-1,3.1736413E-1,7.60142E-2,7.919049E-1,1.29548E-1,7.6645404E-1,5.150323E-2,-2.525369E-1,1.14873834E-1,-1.26435505E-2,1.0855215E-2,4.8828665E-2,4.547821E-3,-6.396749E-3,-1.3483986E-2,9.902651E-3,-3.3547848E-3,-8.118008E-3,1.5548104E-2,1.088166E-2,4.8615824E-2,-3.2734738E-3,2.3007838E-2,1.8784648E-2,-1.5219928E-3,-5.9202267E-3,-1.663827E-2,-1.5140602E-2,2.8875435E-2,-1.0321206E-2,-1.2783279E-2,-1.0827501E-2,5.294616E-3,-1.0244324E-2,1.236648E-2,2.0536667E-2,-2.2847516E-2,5.088109E-3,1.9173913E-2,-1.9344084E-2,3.3729393E-3,1.0886168E-2,2.9277176E-2,1.0241388E-2,-7.6803626E-3,-1.35401515E-2,3.0828596E-3,4.6627562E-2,2.2738963E-2,5.7597894E-2,3.4872208E-2,9.62128E-3,1.7334538E-2,-8.309126E-4,6.5319776E-3,2.775159E-2,4.216647E-2,3.790401E-2,-2.0024716E-3,6.268064E-2,2.0703822E-2,-5.308957E-3,8.791698E-3,-1.4666936E-2,1.5107537E-2,1.9715787E-3,6.3277395E-3],"categories":[],"categories_nodes":[],"categories_segments":[],"categories_sizes":[],"default_left":[0,0,0,0,0,0,0,0,0,0,0,0,0,0,0,0,0,0,0,0,0,0,0,0,0,0,0,0,0,0,0,0,0,0,0,0,0,0,0,0,0,0,0,0,0,0,0,0,0,0,0,0,0,0,0,0,0,0,0,0,0,0,0,0,0,0,0,0,0,0,0,0,0,0,0,0,0,0,0,0,0,0,0,0,0,0,0,0,0,0,0,0,0,0,0,0,0,0,0,0,0,0,0,0,0,0,0,0,0,0,0,0,0,0,0,0,0,0,0],"id":0,"left_children":[1,3,5,7,9,11,13,15,17,19,21,23,25,27,29,31,33,35,37,39,41,43,45,47,49,51,53,55,-1,57,59,61,63,65,67,69,71,73,75,77,79,81,83,85,87,89,91,-1,93,95,97,99,101,103,105,107,109,111,113,115,117,-1,-1,-1,-1,-1,-1,-1,-1,-1,-1,-1,-1,-1,-1,-1,-1,-1,-1,-1,-1,-1,-1,-1,-1,-1,-1,-1,-1,-1,-1,-1,-1,-1,-1,-1,-1,-1,-1,-1,-1,-1,-1,-1,-1,-1,-1,-1,-1,-1,-1,-1,-1,-1,-1,-1,-1,-1,-1],"loss_changes":[2.9162872E2,1.3040103E2,5.0759552E1,1.4344511E2,1.662396E2,2.8545177E1,3.775113E1,3.1102194E1,1.436596E2,1.4690933E1,3.3544117E1,1.0996934E1,3.785614E0,3.368741E1,6.2890744E0,1.4474775E1,1.3608612E1,1.603913E2,2.4799824E1,3.573877E1,1.5237808E1,1.3258973E1,2.105101E1,3.3833466E0,4.939859E0,2.1548996E0,6.790376E-2,9.997963E0,0E0,5.3037624E0,1.369308E0,3.9938283E0,3.609278E1,4.9208145E0,5.047775E0,1.3498974E1,3.801169E1,1.7804337E1,2.697424E1,1.1507118E1,2.5304245E1,1.3126984E0,4.3590636E0,1.5357866E1,4.0200396E0,2.4364594E1,8.5786295E0,0E0,3.5848866E0,2.4877992E0,1.987488E0,4.336357E0,2.18861E0,2.4888277E-2,1.7351244E-2,1.5174484E0,3.015089E0,3.7725039E0,3.9116043E-1,5.8654237E-1,1.1753261E-2,0E0,0E0,0E0,0E0,0E0,0E0,0E0,0E0,0E0,0E0,0E0,0E0,0E0,0E0,0E0,0E0,0E0,0E0,0E0,0E0,0E0,0E0,0E0,0E0,0E0,0E0,0E0,0E0,0E0,0E0,0E0,0E0,0E0,0E0,0E0,0E0,0E0,0E0,0E0,0E0,0E0,0E0,0E0,0E0,0E0,0E0,0E0,0E0,0E0,0E0,0E0,0E0,0E0,0E0,0E0,0E0,0E0,0E0],"parents":[2147483647,0,0,1,1,2,2,3,3,4,4,5,5,6,6,7,7,8,8,9,9,10,10,11,11,12,12,13,13,14,14,15,15,16,16,17,17,18,18,19,19,20,20,21,21,22,22,23,23,24,24,25,25,26,26,27,27,29,29,30,30,31,31,32,32,33,33,34,34,35,35,36,36,37,37,38,38,39,39,40,40,41,41,42,42,43,43,44,44,45,45,46,46,48,48,49,49,50,50,51,51,52,52,53,53,54,54,55,55,56,56,57,57,58,58,59,59,60,60],"right_children":[2,4,6,8,10,12,14,16,18,20,22,24,26,28,30,32,34,36,38,40,42,44,46,48,50,52,54,56,-1,58,60,62,64,66,68,70,72,74,76,78,80,82,84,86,88,90,92,-1,94,96,98,100,102,104,106,108,110,112,114,116,118,-1,-1,-1,-1,-1,-1,-1,-1,-1,-1,-1,-1,-1,-1,-1,-1,-1,-1,-1,-1,-1,-1,-1,-1,-1,-1,-1,-1,-1,-1,-1,-1,-1,-1,-1,-1,-1,-1,-1,-1,-1,-1,-1,-1,-1,-1,-1,-1,-1,-1,-1,-1,-1,-1,-1,-1,-1,-1],"split_conditions":[1.026468E2,2.7903814E0,1.0516615E2,9.6473986E-1,2.7489946E1,1.6345709E2,1.1081482E2,2.2836809E-1,1.3137869E0,1.0049985E1,2.8160412E1,6.5997195E-1,1.54621E2,1.1788759E2,1.3630963E2,8.1094E-3,4.6450207E-1,1.9870464E0,3.5480433E0,1.2661407E1,1.1610559E2,9.409635E1,5.692821E1,1.0358045E2,1.1301383E2,1.3159982E2,9.777442E1,7.576237E1,6.8568684E-2,1.4138786E2,9.409635E1,1.0590789E0,4.293992E-2,1.4090148E0,5.736865E-1,1.2072746E0,9.850933E-1,1.12842455E1,4.8797665E0,1.4163092E1,3.202414E-1,4.049494E1,6.6165867E0,1.0668192E2,1.318836E2,3.9243065E1,1.8532015E1,-2.054577E-2,3.811614E-1,1.02771545E2,1.3521513E2,3.6130636E0,1.3748817E2,6.2127407E1,7.576237E1,2.4983696E1,1.0517476E2,9.833928E1,8.5106415E1,1.6946614E2,1.1301383E2,-1.26435505E-2,1.0855215E-2,4.8828665E-2,4.547821E-3,-6.396749E-3,-1.3483986E-2,9.902651E-3,-3.3547848E-3,-8.118008E-3,1.5548104E-2,1.088166E-2,4.8615824E-2,-3.2734738E-3,2.3007838E-2,1.8784648E-2,-1.5219928E-3,-5.9202267E-3,-1.663827E-2,-1.5140602E-2,2.8875435E-2,-1.0321206E-2,-1.2783279E-2,-1.0827501E-2,5.294616E-3,-1.0244324E-2,1.236648E-2,2.0536667E-2,-2.2847516E-2,5.088109E-3,1.9173913E-2,-1.9344084E-2,3.3729393E-3,1.0886168E-2,2.9277176E-2,1.0241388E-2,-7.6803626E-3,-1.35401515E-2,3.0828596E-3,4.6627562E-2,2.2738963E-2,5.7597894E-2,3.4872208E-2,9.62128E-3,1.7334538E-2,-8.309126E-4,6.5319776E-3,2.775159E-2,4.216647E-2,3.790401E-2,-2.0024716E-3,6.268064E-2,2.0703822E-2,-5.308957E-3,8.791698E-3,-1.4666936E-2,1.5107537E-2,1.9715787E-3,6.3277395E-3],"split_indices":[1,5,2,2,2,1,4,1,2,5,1,2,4,1,2,2,2,1,2,2,4,5,1,1,1,4,2,5,0,4,5,4,5,1,2,2,2,1,1,1,4,5,2,2,2,2,5,0,5,4,1,2,4,5,5,5,1,5,5,4,1,0,0,0,0,0,0,0,0,0,0,0,0,0,0,0,0,0,0,0,0,0,0,0,0,0,0,0,0,0,0,0,0,0,0,0,0,0,0,0,0,0,0,0,0,0,0,0,0,0,0,0,0,0,0,0,0,0,0],"split_type":[0,0,0,0,0,0,0,0,0,0,0,0,0,0,0,0,0,0,0,0,0,0,0,0,0,0,0,0,0,0,0,0,0,0,0,0,0,0,0,0,0,0,0,0,0,0,0,0,0,0,0,0,0,0,0,0,0,0,0,0,0,0,0,0,0,0,0,0,0,0,0,0,0,0,0,0,0,0,0,0,0,0,0,0,0,0,0,0,0,0,0,0,0,0,0,0,0,0,0,0,0,0,0,0,0,0,0,0,0,0,0,0,0,0,0,0,0,0,0],"sum_hessian":[1.5548E4,1.4626E4,9.22E2,4.352E3,1.0274E4,5.25E2,3.97E2,1.865E3,2.487E3,7.997E3,2.277E3,3.5E2,1.75E2,3.16E2,8.1E1,3.89E2,1.476E3,9.02E2,1.585E3,3.523E3,4.474E3,5.7E2,1.707E3,1.21E2,2.29E2,1.49E2,2.6E1,1.89E2,1.27E2,4.2E1,3.9E1,1.08E2,2.81E2,1.089E3,3.87E2,2.9E2,6.12E2,8.8E2,7.05E2,3.359E3,1.64E2,4.222E3,2.52E2,5.01E2,6.9E1,1.303E3,4.04E2,4E0,1.17E2,1.51E2,7.8E1,9.1E1,5.8E1,2.4E1,2E0,1.62E2,2.7E1,2.4E1,1.8E1,2.1E1,1.8E1,8.6E1,2.2E1,5.7E1,2.24E2,3.78E2,7.11E2,9.4E1,2.93E2,2.06E2,8.4E1,7.7E1,5.35E2,8.11E2,6.9E1,4.48E2,2.57E2,3.087E3,2.72E2,4.4E1,1.2E2,3.558E3,6.64E2,5.2E1,2E2,4.1E2,9.1E1,6.4E1,5E0,4.97E2,8.06E2,4.6E1,3.58E2,4.4E1,7.3E1,1.29E2,2.2E1,5.1E1,2.7E1,3E1,6.1E1,2.3E1,3.5E1,6E0,1.8E1,1E0,1E0,3.1E1,1.31E2,5E0,2.2E1,9E0,1.5E1,8E0,1E1,2E1,1E0,3E0,1.5E1],"tree_param":{"num_deleted":"0","num_feature":"6","num_nodes":"119","size_leaf_vector":"1"}},{"base_weights":[9.64855E-4,-1.0226512E-1,2.2706534E-1,-1.19912624E-1,2.443534E-1,2.70011E-1,-7.626312E-2,-1.7851016E-2,-1.562124E-1,4.6174124E-1,-2.0326968E-2,2.1925071E-1,7.5014627E-1,5.649328E-1,-1.0020518E-1,-1.9496681E-1,7.362877E-2,-1.7003179E-1,-5.9251495E-2,2.542439E-1,8.3152324E-1,-1.8012552E-1,5.899313E-1,4.1319096E-1,1.4895977E-1,1.0518392E0,4.62056E-1,3.506144E-1,4.177734E-2,-6.3535705E-2,-3.5305974E-1,-2.1495642E-1,-2.3024172E-2,2.3554374E-1,-3.4894817E-2,-4.251082E-2,-1.7697656E-1,4.0551033E-3,-3.5192665E-1,5.9899423E-2,6.2655795E-1,3.151795E-2,4.6360034E-2,-2.3048677E-1,2.5583511E-2,1.3755004E-2,3.2754663E-2,3.0713279E-2,7.392048E-1,-8.040949E-2,2.0798466E-1,7.2788185E-1,6.510565E-2,-1.0009769E-1,7.359201E-1,3.9742947E-1,6.7109703E-3,7.325709E-2,-1.4490429E-1,-4.2599776E-1,-1.4869244E-1,-9.114592E-3,-1.7234843E-2,3.1572264E-2,-1.960557E-2,6.4771073E-3,4.4315282E-2,2.8861297E-2,-3.1342003E-3,-7.0358436E-3,3.6078233E-2,-6.933264E-3,-1.0308177E-2,-4.1442635E-3,9.476747E-3,-2.1767935E-2,-1.5627546E-2,3.2909214E-2,-4.666774E-3,4.688102E-2,1.2656765E-2,-3.400433E-3,-1.9336198E-2,-1.7430652E-2,2.4616368E-2,3.0663846E-2,-1.5839452E-3,4.3441042E-2,-1.5807546E-3,1.4315384E-3,-1.6433379E-2,-8.438968E-3,1.2299986E-2,2.9753586E-2,5.2203644E-2,-1.0955576E-2,3.7859392E-3,2.2205014E-2,4.6038922E-2,1.3821537E-2,2.700348E-2,-3.1933081E-3,1.3301398E-2,-5.5950116E-3,-2.437252E-2,-5.8290167E-3,-2.1782827E-2,-2.1426154E-2,-4.0959995E-4],"categories":[],"categories_nodes":[],"categories_segments":[],"categories_sizes":[],"default_left":[0,0,0,0,0,0,0,0,0,0,0,0,0,0,0,0,0,0,0,0,0,0,0,0,0,0,0,0,0,0,0,0,0,0,0,0,0,0,0,0,0,0,0,0,0,0,0,0,0,0,0,0,0,0,0,0,0,0,0,0,0,0,0,0,0,0,0,0,0,0,0,0,0,0,0,0,0,0,0,0,0,0,0,0,0,0,0,0,0,0,0,0,0,0,0,0,0,0,0,0,0,0,0,0,0,0,0,0,0],"id":1,"left_children":[1,3,5,7,9,11,13,15,17,19,21,23,25,27,29,31,33,35,37,39,41,43,45,47,49,51,53,55,-1,57,59,61,63,65,67,69,71,73,75,77,79,-1,-1,81,-1,83,-1,85,87,89,91,93,-1,95,97,99,-1,101,103,105,107,-1,-1,-1,-1,-1,-1,-1,-1,-1,-1,-1,-1,-1,-1,-1,-1,-1,-1,-1,-1,-1,-1,-1,-1,-1,-1,-1,-1,-1,-1,-1,-1,-1,-1,-1,-1,-1,-1,-1,-1,-1,-1,-1,-1,-1,-1,-1,-1],"loss_changes":[3.6396924E2,6.551738E1,6.3694824E1,3.7741837E1,2.9871758E1,1.0419562E2,9.375E0,4.3339878E1,1.0059586E1,2.1656288E1,2.3023083E1,5.2749756E1,3.5062164E1,9.829917E-1,5.410986E0,3.1262207E0,3.1004509E1,5.817108E0,1.7399471E1,1.3276192E1,1.3787155E0,6.6329575E0,1.8306828E0,1.2841109E2,3.8533737E1,1.5186737E1,3.25579E1,8.848488E-2,0E0,5.7206306E0,1.0397129E0,3.3953056E0,2.3437006E1,4.8724293E1,1.8016111E1,2.5689096E1,6.9455566E0,1.2480865E1,4.125557E-1,1.1246163E1,7.080595E0,0E0,0E0,4.4160957E0,0E0,1.2121476E0,0E0,1.728445E1,5.557779E1,1.5791294E1,3.2453804E1,3.1161118E0,0E0,1.4813122E0,7.25132E0,4.0560126E-2,0E0,5.092197E0,3.5857968E0,1.105957E-1,8.2213235E-1,0E0,0E0,0E0,0E0,0E0,0E0,0E0,0E0,0E0,0E0,0E0,0E0,0E0,0E0,0E0,0E0,0E0,0E0,0E0,0E0,0E0,0E0,0E0,0E0,0E0,0E0,0E0,0E0,0E0,0E0,0E0,0E0,0E0,0E0,0E0,0E0,0E0,0E0,0E0,0E0,0E0,0E0,0E0,0E0,0E0,0E0,0E0,0E0],"parents":[2147483647,0,0,1,1,2,2,3,3,4,4,5,5,6,6,7,7,8,8,9,9,10,10,11,11,12,12,13,13,14,14,15,15,16,16,17,17,18,18,19,19,20,20,21,21,22,22,23,23,24,24,25,25,26,26,27,27,29,29,30,30,31,31,32,32,33,33,34,34,35,35,36,36,37,37,38,38,39,39,40,40,43,43,45,45,47,47,48,48,49,49,50,50,51,51,53,53,54,54,55,55,57,57,58,58,59,59,60,60],"right_children":[2,4,6,8,10,12,14,16,18,20,22,24,26,28,30,32,34,36,38,40,42,44,46,48,50,52,54,56,-1,58,60,62,64,66,68,70,72,74,76,78,80,-1,-1,82,-1,84,-1,86,88,90,92,94,-1,96,98,100,-1,102,104,106,108,-1,-1,-1,-1,-1,-1,-1,-1,-1,-1,-1,-1,-1,-1,-1,-1,-1,-1,-1,-1,-1,-1,-1,-1,-1,-1,-1,-1,-1,-1,-1,-1,-1,-1,-1,-1,-1,-1,-1,-1,-1,-1,-1,-1,-1,-1,-1,-1],"split_conditions":[2.83E2,3.8445053E1,6.627083E-1,3.4999793E0,5.0420016E-1,1.0516615E2,6.9036454E-1,1.154867E-1,1.6287638E1,4.999598E-1,1.0311986E2,1.3750873E0,5.048589E-1,9.659022E-1,9.9223065E-1,6.219939E-1,3.570567E-1,2.2914255E-2,5.229837E-1,6.097431E1,4.1984894E1,1.0457591E2,5.602336E1,9.850933E-1,4.5989618E-1,4.9999523E-1,5.68E2,4.43E2,4.177734E-2,4.88E2,3.6861023E1,1.03E2,7.3167183E-3,3.3098003E-1,7.388131E-2,2.2037804E0,2.673231E0,4.9951765E-1,3.463378E1,2.2416572E-1,9.833928E1,3.151795E-2,4.6360034E-2,6.3055575E-1,2.5583511E-2,1.1173491E2,3.2754663E-2,1.5107516E-2,4.6183112E-1,2.8686554E0,3.6130636E0,8.5106415E1,6.510565E-2,9.409635E1,2.5355362E1,3.23E2,6.7109703E-3,9.71309E-1,5.2802456E1,1.0010324E0,3.58E2,-9.114592E-3,-1.7234843E-2,3.1572264E-2,-1.960557E-2,6.4771073E-3,4.4315282E-2,2.8861297E-2,-3.1342003E-3,-7.0358436E-3,3.6078233E-2,-6.933264E-3,-1.0308177E-2,-4.1442635E-3,9.476747E-3,-2.1767935E-2,-1.5627546E-2,3.2909214E-2,-4.666774E-3,4.688102E-2,1.2656765E-2,-3.400433E-3,-1.9336198E-2,-1.7430652E-2,2.4616368E-2,3.0663846E-2,-1.5839452E-3,4.3441042E-2,-1.5807546E-3,1.4315384E-3,-1.6433379E-2,-8.438968E-3,1.2299986E-2,2.9753586E-2,5.2203644E-2,-1.0955576E-2,3.7859392E-3,2.2205014E-2,4.6038922E-2,1.3821537E-2,2.700348E-2,-3.1933081E-3,1.3301398E-2,-5.5950116E-3,-2.437252E-2,-5.8290167E-3,-2.1782827E-2,-2.1426154E-2,-4.0959995E-4],"split_indices":[0,2,3,5,3,2,2,3,2,3,5,2,3,3,3,2,3,3,3,2,2,2,2,2,3,3,0,0,0,0,5,0,3,3,5,2,2,3,5,3,5,0,0,3,0,5,0,5,3,5,2,5,0,5,5,0,0,3,5,2,0,0,0,0,0,0,0,0,0,0,0,0,0,0,0,0,0,0,0,0,0,0,0,0,0,0,0,0,0,0,0,0,0,0,0,0,0,0,0,0,0,0,0,0,0,0,0,0,0],"split_type":[0,0,0,0,0,0,0,0,0,0,0,0,0,0,0,0,0,0,0,0,0,0,0,0,0,0,0,0,0,0,0,0,0,0,0,0,0,0,0,0,0,0,0,0,0,0,0,0,0,0,0,0,0,0,0,0,0,0,0,0,0,0,0,0,0,0,0,0,0,0,0,0,0,0,0,0,0,0,0,0,0,0,0,0,0,0,0,0,0,0,0,0,0,0,0,0,0,0,0,0,0,0,0,0,0,0,0,0,0],"sum_hessian":[1.5592E4,1.0705E4,4.887E3,1.0187E4,5.18E2,4.281E3,6.06E2,2.673E3,7.514E3,2.84E2,2.34E2,3.873E3,4.08E2,2.1E1,5.85E2,9.1E2,1.763E3,6.576E3,9.38E2,1.83E2,1.01E2,1.86E2,4.8E1,1.029E3,2.844E3,1.98E2,2.1E2,1.3E1,8E0,5.12E2,7.3E1,8.15E2,9.5E1,7.07E2,1.056E3,3.4E2,6.236E3,7.72E2,1.66E2,1.21E2,6.2E1,3.5E1,6.6E1,1.74E2,1.2E1,5E0,4.3E1,4.74E2,5.55E2,5.82E2,2.262E3,8.8E1,1.1E2,6.9E1,1.41E2,1E1,3E0,1.91E2,3.21E2,5.3E1,2E1,6.53E2,1.62E2,3.4E1,6.1E1,6.09E2,9.8E1,4.5E1,1.011E3,3.02E2,3.8E1,2.699E3,3.537E3,5.26E2,2.46E2,5E1,1.16E2,2.4E1,9.7E1,3.3E1,2.9E1,8.6E1,8.8E1,3E0,2E0,4.5E1,4.29E2,4.75E2,8E1,4.05E2,1.77E2,2.07E2,2.055E3,6.4E1,2.4E1,4.1E1,2.8E1,5.6E1,8.5E1,7E0,3E0,1.12E2,7.9E1,2.94E2,2.7E1,2E0,5.1E1,6E0,1.4E1],"tree_param":{"num_deleted":"0","num_feature":"6","num_nodes":"109","size_leaf_vector":"1"}},{"base_weights":[7.3742405E-5,-3.0879753E-2,4.9485496E-1,1.02605075E-1,-9.018861E-2,3.1298447E-1,7.434644E-1,-8.590404E-2,2.4424098E-1,-1.4378907E-1,1.6023812E-1,1.5016013E-1,6.359449E-1,8.506593E-1,-2.6855191E-2,1.377611E-1,-1.4458369E-1,5.454661E-1,7.7049926E-2,-1.5262896E-1,5.7444546E-2,3.0603755E-1,7.3167414E-4,3.8365665E-1,2.9776618E-2,7.0974183E-1,3.4732604E-1,6.2961286E-1,1.1783838E0,-1.5074663E-1,1.2641408E-1,-1.3748156E-1,2.4227716E-1,-2.0199102E-1,-9.30903E-3,-2.189441E-2,8.141069E-1,-2.6345558E-2,2.0998254E-1,-1.0294239E-1,-1.9018859E-1,-2.2345681E-1,1.13812245E-1,4.954101E-2,4.327653E-1,-4.3891087E-2,2.4889724E-1,-2.1100553E-2,4.2235535E-1,1.2695426E-1,-1.3893554E-1,9.1828007E-1,6.2872595E-1,6.714987E-1,1.9038536E-1,7.330419E-1,9.0907544E-2,6.282511E-2,9.177442E-3,7.010269E-2,-2.4742544E-1,1.9443432E-3,7.493496E-3,-1.0636135E-2,9.755505E-3,3.5778787E-2,3.4317174E-3,-5.5803866E-3,-1.2624002E-2,7.730463E-3,-3.7928217E-3,-7.0967786E-3,1.6294062E-2,4.410402E-2,1.8553453E-3,1.187142E-2,-7.381597E-3,4.3375637E-2,5.3880727E-3,-6.5490934E-3,1.4059144E-2,-9.794087E-3,-5.2090827E-3,-1.9084621E-3,-1.5525709E-2,1.005416E-2,-2.3359717E-3,-1.0171501E-2,1.1719974E-2,-2.1311814E-2,2.3771033E-2,1.3648097E-3,-1.1976046E-2,2.1968303E-2,-1.2086174E-2,1.1567782E-2,2.7786896E-2,-1.1951026E-4,1.308235E-2,-1.184982E-2,3.6327343E-3,3.371297E-2,6.584569E-2,2.29204E-2,4.396267E-2,4.5875724E-2,1.8234981E-2,2.2909045E-3,1.4345586E-2,2.6631577E-2,3.9126962E-2,3.5084948E-2,-1.9298915E-3,3.6275744E-2,-5.12566E-3,-1.4633534E-2,1.4174724E-2],"categories":[],"categories_nodes":[],"categories_segments":[],"categories_sizes":[],"default_left":[0,0,0,0,0,0,0,0,0,0,0,0,0,0,0,0,0,0,0,0,0,0,0,0,0,0,0,0,0,0,0,0,0,0,0,0,0,0,0,0,0,0,0,0,0,0,0,0,0,0,0,0,0,0,0,0,0,0,0,0,0,0,0,0,0,0,0,0,0,0,0,0,0,0,0,0,0,0,0,0,0,0,0,0,0,0,0,0,0,0,0,0,0,0,0,0,0,0,0,0,0,0,0,0,0,0,0,0,0,0,0,0,0,0,0,0,0],"id":2,"left_children":[1,3,5,7,9,11,13,15,17,19,21,23,25,27,29,31,33,35,37,39,41,43,45,47,49,51,53,55,57,59,61,63,65,67,69,71,73,75,77,79,81,83,85,87,89,91,93,-1,95,97,99,101,103,105,107,109,111,-1,-1,113,115,-1,-1,-1,-1,-1,-1,-1,-1,-1,-1,-1,-1,-1,-1,-1,-1,-1,-1,-1,-1,-1,-1,-1,-1,-1,-1,-1,-1,-1,-1,-1,-1,-1,-1,-1,-1,-1,-1,-1,-1,-1,-1,-1,-1,-1,-1,-1,-1,-1,-1,-1,-1,-1,-1,-1,-1],"loss_changes":[2.3749289E2,1.155475E2,4.1048355E1,1.1990246E2,1.3566234E2,2.77224E1,3.1813965E1,2.5311007E1,1.290865E2,1.4816162E1,4.144187E1,9.9111E0,3.5234451E0,2.3743607E1,9.3051654E-1,1.1568989E1,1.1856426E1,1.3947864E2,2.2684177E1,1.4861588E1,5.583083E0,3.0240929E1,9.44583E0,3.919632E0,3.8540795E0,1.787941E0,1.80544E0,1.1299789E1,1.0260895E1,5.9383434E-1,3.933856E-2,2.819232E0,2.386669E1,4.8637505E0,4.985929E0,1.2361734E1,3.2765625E1,2.9755796E1,4.843463E1,3.7034077E1,2.2026062E0,9.3985605E-1,4.114252E0,1.4497707E1,2.3029984E1,1.0075292E1,1.2254439E1,0E0,2.8011703E0,2.5964677E0,1.8016089E0,2.7112255E0,4.0345535E0,5.711117E-1,3.6362708E-1,1.2794724E0,2.7165103E0,0E0,0E0,1.0925858E0,5.393809E-1,0E0,0E0,0E0,0E0,0E0,0E0,0E0,0E0,0E0,0E0,0E0,0E0,0E0,0E0,0E0,0E0,0E0,0E0,0E0,0E0,0E0,0E0,0E0,0E0,0E0,0E0,0E0,0E0,0E0,0E0,0E0,0E0,0E0,0E0,0E0,0E0,0E0,0E0,0E0,0E0,0E0,0E0,0E0,0E0,0E0,0E0,0E0,0E0,0E0,0E0,0E0,0E0,0E0,0E0,0E0,0E0],"parents":[2147483647,0,0,1,1,2,2,3,3,4,4,5,5,6,6,7,7,8,8,9,9,10,10,11,11,12,12,13,13,14,14,15,15,16,16,17,17,18,18,19,19,20,20,21,21,22,22,23,23,24,24,25,25,26,26,27,27,28,28,29,29,30,30,31,31,32,32,33,33,34,34,35,35,36,36,37,37,38,38,39,39,40,40,41,41,42,42,43,43,44,44,45,45,46,46,48,48,49,49,50,50,51,51,52,52,53,53,54,54,55,55,56,56,59,59,60,60],"right_children":[2,4,6,8,10,12,14,16,18,20,22,24,26,28,30,32,34,36,38,40,42,44,46,48,50,52,54,56,58,60,62,64,66,68,70,72,74,76,78,80,82,84,86,88,90,92,94,-1,96,98,100,102,104,106,108,110,112,-1,-1,114,116,-1,-1,-1,-1,-1,-1,-1,-1,-1,-1,-1,-1,-1,-1,-1,-1,-1,-1,-1,-1,-1,-1,-1,-1,-1,-1,-1,-1,-1,-1,-1,-1,-1,-1,-1,-1,-1,-1,-1,-1,-1,-1,-1,-1,-1,-1,-1,-1,-1,-1,-1,-1,-1,-1,-1,-1],"split_conditions":[1.026468E2,2.9422593E0,1.0516615E2,9.6473986E-1,3.8445053E1,1.6345709E2,1.3748817E2,2.2836809E-1,1.3137869E0,1.1610559E2,5.137619E1,6.5997195E-1,1.467457E2,1.3125613E2,9.409635E1,8.1094E-3,4.349734E-1,1.8517202E0,4.739508E0,1.0049985E1,5.7728214E0,1.3980545E1,9.409635E1,1.0358045E2,1.1301383E2,3.3800497E0,3.8445053E1,7.576237E1,9.833928E1,1.318836E2,1.1788759E2,1.0590789E0,7.388131E-2,1.4090148E0,5.736865E-1,1.2072746E0,1.8735826E0,9.3165416E-1,4.792843E0,1.2661407E1,1.02771545E2,1.26063644E2,3.909545E1,4.151095E1,2.4463434E1,8.138463E1,1.318836E2,-2.1100553E-2,4.0260157E-1,2.7597305E1,1.3903181E2,2.3911893E0,1.3159982E2,1.54621E2,7.576237E1,2.5779432E1,1.0545086E2,6.282511E-2,9.177442E-3,1.4138786E2,1.6946614E2,1.9443432E-3,7.493496E-3,-1.0636135E-2,9.755505E-3,3.5778787E-2,3.4317174E-3,-5.5803866E-3,-1.2624002E-2,7.730463E-3,-3.7928217E-3,-7.0967786E-3,1.6294062E-2,4.410402E-2,1.8553453E-3,1.187142E-2,-7.381597E-3,4.3375637E-2,5.3880727E-3,-6.5490934E-3,1.4059144E-2,-9.794087E-3,-5.2090827E-3,-1.9084621E-3,-1.5525709E-2,1.005416E-2,-2.3359717E-3,-1.0171501E-2,1.1719974E-2,-2.1311814E-2,2.3771033E-2,1.3648097E-3,-1.1976046E-2,2.1968303E-2,-1.2086174E-2,1.1567782E-2,2.7786896E-2,-1.1951026E-4,1.308235E-2,-1.184982E-2,3.6327343E-3,3.371297E-2,6.584569E-2,2.29204E-2,4.396267E-2,4.5875724E-2,1.8234981E-2,2.2909045E-3,1.4345586E-2,2.6631577E-2,3.9126962E-2,3.5084948E-2,-1.9298915E-3,3.6275744E-2,-5.12566E-3,-1.4633534E-2,1.4174724E-2],"split_indices":[1,5,2,2,2,1,4,1,2,4,2,2,4,1,5,2,2,1,1,5,2,5,5,1,1,2,2,5,5,2,1,4,5,1,2,2,4,5,1,2,4,4,1,1,1,4,2,0,5,5,1,2,4,4,5,5,2,0,0,4,4,0,0,0,0,0,0,0,0,0,0,0,0,0,0,0,0,0,0,0,0,0,0,0,0,0,0,0,0,0,0,0,0,0,0,0,0,0,0,0,0,0,0,0,0,0,0,0,0,0,0,0,0,0,0,0,0],"split_type":[0,0,0,0,0,0,0,0,0,0,0,0,0,0,0,0,0,0,0,0,0,0,0,0,0,0,0,0,0,0,0,0,0,0,0,0,0,0,0,0,0,0,0,0,0,0,0,0,0,0,0,0,0,0,0,0,0,0,0,0,0,0,0,0,0,0,0,0,0,0,0,0,0,0,0,0,0,0,0,0,0,0,0,0,0,0,0,0,0,0,0,0,0,0,0,0,0,0,0,0,0,0,0,0,0,0,0,0,0,0,0,0,0,0,0,0,0],"sum_hessian":[1.5505E4,1.4593E4,9.12E2,4.489E3,1.0104E4,5.28E2,3.84E2,1.926E3,2.563E3,8.323E3,1.781E3,3.52E2,1.76E2,3.37E2,4.7E1,4E2,1.526E3,9.14E2,1.649E3,7.973E3,3.5E2,9.3E2,8.51E2,1.19E2,2.33E2,1.39E2,3.7E1,2.03E2,1.34E2,2.6E1,2.1E1,1.1E2,2.9E2,1.071E3,4.55E2,2.94E2,6.2E2,9.28E2,7.21E2,3.434E3,4.539E3,5.8E1,2.92E2,3.08E2,6.22E2,7.22E2,1.29E2,5E0,1.14E2,1.48E2,8.5E1,3.6E1,1.03E2,1.1E1,2.6E1,1.7E2,3.3E1,1.24E2,1E1,8E0,1.8E1,5E0,1.6E1,9E1,2E1,7.7E1,2.13E2,3.85E2,6.86E2,1.31E2,3.24E2,2.19E2,7.5E1,5.7E2,5E1,2.92E2,6.36E2,9.6E1,6.25E2,3.201E3,2.33E2,4.256E3,2.83E2,1.9E1,3.9E1,1.89E2,1.03E2,1.3E2,1.78E2,2.9E1,5.93E2,5.3E2,1.92E2,9.3E1,3.6E1,4.8E1,6.6E1,7.6E1,7.2E1,5.8E1,2.7E1,2.4E1,1.2E1,6.3E1,4E1,5E0,6E0,1.1E1,1.5E1,3.6E1,1.34E2,5E0,2.8E1,1E0,7E0,1.7E1,1E0],"tree_param":{"num_deleted":"0","num_feature":"6","num_nodes":"117","size_leaf_vector":"1"}},{"base_weights":[-1.1996062E-3,-9.766789E-2,1.9924429E-1,-1.1402348E-1,2.3032628E-1,1.6674612E-1,4.7864652E-1,-1.2313707E-1,8.470488E-2,4.5395625E-1,-2.5825558E-2,3.4027854E-1,1.0983476E-1,6.774309E-1,-2.2373845E-1,-6.952996E-2,-1.6735736E-1,-9.390589E-2,2.0988812E-1,2.4480952E-1,7.8458977E-1,-1.0926438E-1,3.4733906E-1,1.09279715E-1,7.4157655E-1,-7.894389E-2,1.540252E-1,1.0640194E0,4.6940267E-1,-3.416382E-1,-8.4621675E-2,-1.1960353E-1,9.705155E-2,8.24741E-1,-1.7149942E-1,-2.8892255E-1,-4.384067E-2,5.622156E-1,1.5048899E-1,-1.1477522E-1,5.607504E-1,6.05955E-1,8.8839036E-1,-1.8304212E-1,3.4837896E-1,2.7871912E-2,2.1487744E-1,5.788432E-1,7.0636764E-2,8.735401E-1,2.9584793E-3,1.5202845E-2,-2.8735378E-1,1.8944287E-1,-1.9007985E-1,1.1536884E0,7.8585036E-2,1.9942577E-1,6.9890416E-1,-1.1557649E-1,-2.0193428E-2,1.4960423E-1,-2.9977608E-1,-1.7331922E-3,-8.631884E-3,-8.6679375E-3,9.851495E-3,5.586618E-2,1.38987275E-2,-8.235781E-3,-1.5051955E-2,6.5966845E-3,-1.6496865E-2,1.9071719E-2,-4.0659076E-3,3.4148492E-2,1.955521E-3,-1.9774197E-3,1.7480325E-2,-1.6346268E-2,3.2754024E-3,3.8145673E-2,1.5519748E-2,4.234605E-2,2.7850742E-2,4.7386274E-2,3.437006E-2,-2.0167488E-4,-1.8100109E-2,3.043819E-2,-1.2001557E-2,-1.4167042E-2,2.3289412E-2,1.0298336E-2,4.720456E-2,-8.816118E-3,8.406121E-3,4.9172346E-2,2.3769034E-2,-4.8343497E-3,2.7037412E-2,1.7960094E-2,-2.6360087E-3,-1.54726645E-2,4.417145E-3,-7.7759973E-3,1.1155897E-2,-1.8168274E-2,-4.861115E-3,5.9452415E-2,4.0048428E-2,1.3570492E-2,-3.7928342E-3,-3.0687472E-3,1.8705562E-2,4.4078056E-2,2.4530327E-2,-1.9473825E-3,-8.1167435E-3,1.2329711E-2,2.7786319E-3,-8.588529E-3,-1.9652246E-2],"categories":[],"categories_nodes":[],"categories_segments":[],"categories_sizes":[],"default_left":[0,0,0,0,0,0,0,0,0,0,0,0,0,0,0,0,0,0,0,0,0,0,0,0,0,0,0,0,0,0,0,0,0,0,0,0,0,0,0,0,0,0,0,0,0,0,0,0,0,0,0,0,0,0,0,0,0,0,0,0,0,0,0,0,0,0,0,0,0,0,0,0,0,0,0,0,0,0,0,0,0,0,0,0,0,0,0,0,0,0,0,0,0,0,0,0,0,0,0,0,0,0,0,0,0,0,0,0,0,0,0,0,0,0,0,0,0,0,0,0,0,0,0],"id":3,"left_children":[1,3,5,7,9,11,13,15,17,19,21,23,25,27,29,31,33,35,37,39,41,43,45,47,49,51,53,55,57,59,61,63,65,67,69,71,73,75,77,79,81,83,85,87,89,-1,91,93,95,97,99,101,103,105,107,109,111,113,115,117,-1,119,121,-1,-1,-1,-1,-1,-1,-1,-1,-1,-1,-1,-1,-1,-1,-1,-1,-1,-1,-1,-1,-1,-1,-1,-1,-1,-1,-1,-1,-1,-1,-1,-1,-1,-1,-1,-1,-1,-1,-1,-1,-1,-1,-1,-1,-1,-1,-1,-1,-1,-1,-1,-1,-1,-1,-1,-1,-1,-1,-1,-1],"loss_changes":[3.0132047E2,5.646122E1,4.5892532E1,1.815976E1,2.8653336E1,4.4769882E1,7.373298E1,2.2702713E1,9.857702E0,1.8271221E1,7.323874E0,1.0374225E2,2.8525837E1,3.255371E1,1.8901043E0,3.61546E1,2.1715424E1,1.7642999E0,5.3357325E0,1.8809603E1,1.3715401E0,6.5464354E0,1.0769124E0,1.2878579E1,3.986293E1,1.2738469E1,3.3795097E1,1.2545227E1,1.6527885E1,8.395996E-1,2.816558E0,1.5003689E1,2.7123398E1,3.208849E0,4.5455017E0,6.82199E-1,2.3579998E0,2.3104734E0,8.452095E0,3.0046914E0,4.217106E0,1.1761665E-2,9.9853516E-2,5.3164144E0,4.282875E0,0E0,3.6322103E0,7.159937E0,1.5895052E1,1.4717316E1,3.428347E0,1.048666E1,1.7044849E0,2.9215714E1,4.13221E0,6.814728E-1,4.0773076E-1,5.717723E0,5.08432E0,4.7423035E-2,0E0,2.3253947E-1,2.7871537E-1,0E0,0E0,0E0,0E0,0E0,0E0,0E0,0E0,0E0,0E0,0E0,0E0,0E0,0E0,0E0,0E0,0E0,0E0,0E0,0E0,0E0,0E0,0E0,0E0,0E0,0E0,0E0,0E0,0E0,0E0,0E0,0E0,0E0,0E0,0E0,0E0,0E0,0E0,0E0,0E0,0E0,0E0,0E0,0E0,0E0,0E0,0E0,0E0,0E0,0E0,0E0,0E0,0E0,0E0,0E0,0E0,0E0,0E0,0E0,0E0],"parents":[2147483647,0,0,1,1,2,2,3,3,4,4,5,5,6,6,7,7,8,8,9,9,10,10,11,11,12,12,13,13,14,14,15,15,16,16,17,17,18,18,19,19,20,20,21,21,22,22,23,23,24,24,25,25,26,26,27,27,28,28,29,29,30,30,31,31,32,32,33,33,34,34,35,35,36,36,37,37,38,38,39,39,40,40,41,41,42,42,43,43,44,44,46,46,47,47,48,48,49,49,50,50,51,51,52,52,53,53,54,54,55,55,56,56,57,57,58,58,59,59,61,61,62,62],"right_children":[2,4,6,8,10,12,14,16,18,20,22,24,26,28,30,32,34,36,38,40,42,44,46,48,50,52,54,56,58,60,62,64,66,68,70,72,74,76,78,80,82,84,86,88,90,-1,92,94,96,98,100,102,104,106,108,110,112,114,116,118,-1,120,122,-1,-1,-1,-1,-1,-1,-1,-1,-1,-1,-1,-1,-1,-1,-1,-1,-1,-1,-1,-1,-1,-1,-1,-1,-1,-1,-1,-1,-1,-1,-1,-1,-1,-1,-1,-1,-1,-1,-1,-1,-1,-1,-1,-1,-1,-1,-1,-1,-1,-1,-1,-1,-1,-1,-1,-1,-1,-1,-1,-1],"split_conditions":[2.73E2,3.8445053E1,1.0668192E2,1.1445031E2,5.0420016E-1,1.3750873E0,1.6834756E2,1.8944663E0,6.8E1,4.999598E-1,8.635355E1,1.1007519E0,4.6183112E-1,5.048589E-1,6.43E2,1.08E2,1.5410515E-2,3.9210427E0,1.09110445E-1,1.2817264E2,4.1984894E1,1.3502289E2,2.13E2,5.980738E-2,1.0590789E0,5.8760886E0,7.868869E-1,1.3748817E2,5.78E2,4.48E2,7.763712E-1,1.5889633E0,1.44754E-1,6.8E1,9.9101895E-1,1.2008096E-2,5.1590726E-2,1.28E2,4.8357344E-1,1.73E2,1.4138786E2,1.23E2,1.17788574E2,6.3055575E-1,1.68E2,2.7871912E-2,9.659022E-1,6.98E2,5.1607186E-1,3.479425E-1,4.1892254E1,2.1028794E-1,1.21257454E2,3.5480433E0,3.98E2,7.669599E1,1.4138786E2,8.5853887E-1,1.488E3,3.98E2,-2.0193428E-2,6.984915E-1,8.770584E-1,-1.7331922E-3,-8.631884E-3,-8.6679375E-3,9.851495E-3,5.586618E-2,1.38987275E-2,-8.235781E-3,-1.5051955E-2,6.5966845E-3,-1.6496865E-2,1.9071719E-2,-4.0659076E-3,3.4148492E-2,1.955521E-3,-1.9774197E-3,1.7480325E-2,-1.6346268E-2,3.2754024E-3,3.8145673E-2,1.5519748E-2,4.234605E-2,2.7850742E-2,4.7386274E-2,3.437006E-2,-2.0167488E-4,-1.8100109E-2,3.043819E-2,-1.2001557E-2,-1.4167042E-2,2.3289412E-2,1.0298336E-2,4.720456E-2,-8.816118E-3,8.406121E-3,4.9172346E-2,2.3769034E-2,-4.8343497E-3,2.7037412E-2,1.7960094E-2,-2.6360087E-3,-1.54726645E-2,4.417145E-3,-7.7759973E-3,1.1155897E-2,-1.8168274E-2,-4.861115E-3,5.9452415E-2,4.0048428E-2,1.3570492E-2,-3.7928342E-3,-3.0687472E-3,1.8705562E-2,4.4078056E-2,2.4530327E-2,-1.9473825E-3,-8.1167435E-3,1.2329711E-2,2.7786319E-3,-8.588529E-3,-1.9652246E-2],"split_indices":[0,2,2,4,3,2,2,2,0,3,2,2,3,3,0,0,3,2,3,4,2,4,0,2,4,2,3,4,0,0,3,4,3,0,3,3,3,0,3,0,4,0,4,3,0,0,3,0,2,3,4,3,4,2,0,4,4,3,0,0,0,3,3,0,0,0,0,0,0,0,0,0,0,0,0,0,0,0,0,0,0,0,0,0,0,0,0,0,0,0,0,0,0,0,0,0,0,0,0,0,0,0,0,0,0,0,0,0,0,0,0,0,0,0,0,0,0,0,0,0,0,0,0],"split_type":[0,0,0,0,0,0,0,0,0,0,0,0,0,0,0,0,0,0,0,0,0,0,0,0,0,0,0,0,0,0,0,0,0,0,0,0,0,0,0,0,0,0,0,0,0,0,0,0,0,0,0,0,0,0,0,0,0,0,0,0,0,0,0,0,0,0,0,0,0,0,0,0,0,0,0,0,0,0,0,0,0,0,0,0,0,0,0,0,0,0,0,0,0,0,0,0,0,0,0,0,0,0,0,0,0,0,0,0,0,0,0,0,0,0,0,0,0,0,0,0,0,0,0],"sum_hessian":[1.5581E4,1.0519E4,5.062E3,1.002E4,4.99E2,4.536E3,5.26E2,9.581E3,4.39E2,2.66E2,2.33E2,1.119E3,3.417E3,4.1E2,1.16E2,4.332E3,5.249E3,1.81E2,2.58E2,1.64E2,1.02E2,1.91E2,4.2E1,7.11E2,4.08E2,6.48E2,2.769E3,1.42E2,2.68E2,6.2E1,5.4E1,3.331E3,1.001E3,2.1E1,5.228E3,3.6E1,1.45E2,3.6E1,2.22E2,7.7E1,8.7E1,4E1,6.2E1,1.65E2,2.6E1,1.5E1,2.7E1,5.3E1,6.58E2,3.46E2,6.2E1,4.47E2,2.01E2,2.511E3,2.58E2,1.3E2,1.2E1,1.24E2,1.44E2,1.4E1,4.8E1,2.6E1,2.8E1,1.281E3,2.05E3,2.7E2,7.31E2,1.3E1,8E0,4.97E3,2.58E2,3E0,3.3E1,1.1E1,1.34E2,2.9E1,7E0,1.14E2,1.08E2,3.5E1,4.2E1,4.7E1,4E1,4E0,3.6E1,4.5E1,1.7E1,8.3E1,8.2E1,1.8E1,8E0,9E0,1.8E1,2.7E1,2.6E1,1.86E2,4.72E2,2.7E2,7.6E1,5.3E1,9E0,7.3E1,3.74E2,1.9E2,1.1E1,2.23E2,2.288E3,8.9E1,1.69E2,1.16E2,1.4E1,5E0,7E0,5E1,7.4E1,7.5E1,6.9E1,6E0,8E0,1.2E1,1.4E1,1.3E1,1.5E1],"tree_param":{"num_deleted":"0","num_feature":"6","num_nodes":"123","size_leaf_vector":"1"}},{"base_weights":[-6.586687E-4,-9.6712895E-2,1.7816262E-1,-1.1375584E-1,1.6027711E-1,2.1395831E-1,-7.771901E-2,-6.55242E-2,-1.4191493E-1,9.084463E-3,3.3698478E-1,1.7356786E-1,6.3671523E-1,5.415931E-1,-9.968252E-2,-1.2390074E-1,1.6371657E-1,8.7070394E-1,-1.4477563E-1,3.4582403E-1,-2.4618797E-2,4.2674085E-1,8.315646E-2,3.4452584E-1,1.1536971E-1,7.5661767E-1,1.1717292E-1,1.0591459E-2,7.384535E-1,-5.344168E-2,-3.316837E-1,-1.7753297E-1,-7.199661E-2,4.0735093E-1,-1.2779641E-1,1.5746756E-2,1.017484E0,-1.5219885E-1,5.7489995E-2,4.174307E-2,1.084495E0,-8.37469E-2,1.5232308E-1,2.813588E-1,6.87022E-1,-1.2323507E-1,2.8741577E-1,3.2312192E-2,6.380267E-1,-6.311777E-2,1.68193E-1,9.7142875E-1,5.1857215E-1,5.428367E-1,-4.6306003E-2,9.763479E-3,4.0635586E-2,1.4575353E-2,-1.9742323E-1,-4.5803794E-1,-2.6655927E-1,-9.710367E-3,-1.6550937E-3,7.406909E-3,-5.175656E-3,3.5062756E-2,3.7944E-3,-8.042627E-3,2.8284122E-3,5.671511E-2,1.249946E-2,-7.359739E-3,-1.4902191E-2,1.781496E-2,-6.3152867E-3,-9.402314E-3,1.164846E-2,6.596512E-2,2.3057997E-2,-9.648567E-3,7.002254E-3,-1.096764E-2,2.850543E-2,6.201096E-3,3.0912235E-2,-8.326662E-3,3.621904E-2,-8.144697E-3,2.034847E-2,-1.4476436E-2,2.2282217E-2,-3.2524025E-4,3.821627E-2,3.9088544E-2,-1.388023E-3,1.4885725E-2,-6.219414E-3,-7.672353E-3,1.0124948E-2,2.9909551E-2,5.615619E-2,-8.2592247E-4,2.948918E-2,3.9387386E-2,5.0774473E-3,4.2324467E-3,-1.2463282E-2,4.714775E-3,-1.3182535E-2,4.7398782E-3,-1.4445349E-2,-2.377368E-2,-5.678336E-3,-9.235981E-3,-2.239411E-2],"categories":[],"categories_nodes":[],"categories_segments":[],"categories_sizes":[],"default_left":[0,0,0,0,0,0,0,0,0,0,0,0,0,0,0,0,0,0,0,0,0,0,0,0,0,0,0,0,0,0,0,0,0,0,0,0,0,0,0,0,0,0,0,0,0,0,0,0,0,0,0,0,0,0,0,0,0,0,0,0,0,0,0,0,0,0,0,0,0,0,0,0,0,0,0,0,0,0,0,0,0,0,0,0,0,0,0,0,0,0,0,0,0,0,0,0,0,0,0,0,0,0,0,0,0,0,0,0,0,0,0,0,0,0,0],"id":4,"left_children":[1,3,5,7,9,11,13,15,17,19,21,23,25,27,29,31,33,35,37,39,41,43,45,47,49,51,53,-1,55,57,59,61,63,65,67,-1,69,71,73,75,77,79,81,83,85,87,89,91,93,95,97,99,101,103,105,-1,-1,107,109,111,113,-1,-1,-1,-1,-1,-1,-1,-1,-1,-1,-1,-1,-1,-1,-1,-1,-1,-1,-1,-1,-1,-1,-1,-1,-1,-1,-1,-1,-1,-1,-1,-1,-1,-1,-1,-1,-1,-1,-1,-1,-1,-1,-1,-1,-1,-1,-1,-1,-1,-1,-1,-1,-1,-1],"loss_changes":[2.6685477E2,4.4285538E1,4.9743332E1,1.2864677E1,1.6801872E1,8.1219345E1,9.126698E0,4.680475E1,1.746045E1,3.8672493E0,6.571476E0,4.3230362E1,2.5763504E1,1.3366761E0,6.9017887E0,7.745487E0,5.047809E1,1.0663462E0,8.969482E0,6.917818E0,3.2560503E0,7.904503E0,3.2815387E0,1.0114438E2,3.061486E1,1.6728683E1,5.522515E0,0E0,4.0600395E-1,5.281411E0,7.5838184E-1,3.2929344E0,9.8532505E0,3.7647682E1,1.9836793E0,0E0,8.819828E-1,4.157715E0,1.1688011E1,1.0544689E0,7.0886326E-1,5.722372E0,1.2236957E1,7.2909613E0,2.5441132E0,8.86358E-1,3.6893017E0,1.5235173E1,5.4476746E1,1.6441448E1,2.7671684E1,9.292969E0,6.182686E0,2.2976818E0,1.5626569E0,0E0,0E0,8.165002E0,4.6522737E0,1.5621471E-1,1.0005436E0,0E0,0E0,0E0,0E0,0E0,0E0,0E0,0E0,0E0,0E0,0E0,0E0,0E0,0E0,0E0,0E0,0E0,0E0,0E0,0E0,0E0,0E0,0E0,0E0,0E0,0E0,0E0,0E0,0E0,0E0,0E0,0E0,0E0,0E0,0E0,0E0,0E0,0E0,0E0,0E0,0E0,0E0,0E0,0E0,0E0,0E0,0E0,0E0,0E0,0E0,0E0,0E0,0E0,0E0],"parents":[2147483647,0,0,1,1,2,2,3,3,4,4,5,5,6,6,7,7,8,8,9,9,10,10,11,11,12,12,13,13,14,14,15,15,16,16,17,17,18,18,19,19,20,20,21,21,22,22,23,23,24,24,25,25,26,26,28,28,29,29,30,30,31,31,32,32,33,33,34,34,36,36,37,37,38,38,39,39,40,40,41,41,42,42,43,43,44,44,45,45,46,46,47,47,48,48,49,49,50,50,51,51,52,52,53,53,54,54,57,57,58,58,59,59,60,60],"right_children":[2,4,6,8,10,12,14,16,18,20,22,24,26,28,30,32,34,36,38,40,42,44,46,48,50,52,54,-1,56,58,60,62,64,66,68,-1,70,72,74,76,78,80,82,84,86,88,90,92,94,96,98,100,102,104,106,-1,-1,108,110,112,114,-1,-1,-1,-1,-1,-1,-1,-1,-1,-1,-1,-1,-1,-1,-1,-1,-1,-1,-1,-1,-1,-1,-1,-1,-1,-1,-1,-1,-1,-1,-1,-1,-1,-1,-1,-1,-1,-1,-1,-1,-1,-1,-1,-1,-1,-1,-1,-1,-1,-1,-1,-1,-1,-1],"split_conditions":[2.48E2,1.1445031E2,6.627083E-1,1.3137869E0,1.13E2,1.0516615E2,6.9036454E-1,1.0010324E0,1.2008096E-2,5.1590726E-2,5.1309365E-1,1.3750873E0,1.1081482E2,5.736865E-1,9.9223065E-1,1.09110445E-1,2.27243E0,2.3911893E0,3.8445053E1,6.8E1,1.3748817E2,4.877905E-1,1.3159982E2,9.850933E-1,4.5989618E-1,5.696989E-1,3.03E2,1.0591459E-2,3.23E2,6.68E2,5.3762836E0,6.4030665E-1,3.2101948E-2,3.4595415E-1,1.08E2,1.5746756E-2,8.138463E1,9.971699E-1,4.1892254E1,3.6130636E0,4.0470503E-2,4.986196E-1,1.0392796E1,5.602336E1,5.9010186E0,9.777442E1,4.8641754E1,7.58E2,4.6183112E-1,1.986078E-1,3.6130636E0,1.0545086E2,5.18E2,1.3748817E2,3.98E2,9.763479E-3,4.0635586E-2,5.535262E1,7.868869E-1,3.23E2,7.08E2,-9.710367E-3,-1.6550937E-3,7.406909E-3,-5.175656E-3,3.5062756E-2,3.7944E-3,-8.042627E-3,2.8284122E-3,5.671511E-2,1.249946E-2,-7.359739E-3,-1.4902191E-2,1.781496E-2,-6.3152867E-3,-9.402314E-3,1.164846E-2,6.596512E-2,2.3057997E-2,-9.648567E-3,7.002254E-3,-1.096764E-2,2.850543E-2,6.201096E-3,3.0912235E-2,-8.326662E-3,3.621904E-2,-8.144697E-3,2.034847E-2,-1.4476436E-2,2.2282217E-2,-3.2524025E-4,3.821627E-2,3.9088544E-2,-1.388023E-3,1.4885725E-2,-6.219414E-3,-7.672353E-3,1.0124948E-2,2.9909551E-2,5.615619E-2,-8.2592247E-4,2.948918E-2,3.9387386E-2,5.0774473E-3,4.2324467E-3,-1.2463282E-2,4.714775E-3,-1.3182535E-2,4.7398782E-3,-1.4445349E-2,-2.377368E-2,-5.678336E-3,-9.235981E-3,-2.239411E-2],"split_indices":[0,4,3,2,0,2,2,2,3,3,3,2,4,2,3,3,4,2,2,0,4,3,4,2,3,3,0,0,0,0,2,2,2,3,0,0,4,3,4,2,3,3,2,2,2,2,2,0,3,3,2,2,0,4,0,0,0,4,3,0,0,0,0,0,0,0,0,0,0,0,0,0,0,0,0,0,0,0,0,0,0,0,0,0,0,0,0,0,0,0,0,0,0,0,0,0,0,0,0,0,0,0,0,0,0,0,0,0,0,0,0,0,0,0,0],"split_type":[0,0,0,0,0,0,0,0,0,0,0,0,0,0,0,0,0,0,0,0,0,0,0,0,0,0,0,0,0,0,0,0,0,0,0,0,0,0,0,0,0,0,0,0,0,0,0,0,0,0,0,0,0,0,0,0,0,0,0,0,0,0,0,0,0,0,0,0,0,0,0,0,0,0,0,0,0,0,0,0,0,0,0,0,0,0,0,0,0,0,0,0,0,0,0,0,0,0,0,0,0,0,0,0,0,0,0,0,0,0,0,0,0,0,0],"sum_hessian":[1.5534E4,1.0106E4,5.428E3,9.478E3,6.28E2,4.762E3,6.66E2,3.495E3,5.983E3,3.39E2,2.89E2,4.348E3,4.14E2,2.2E1,6.44E2,2.786E3,7.09E2,1.6E1,5.967E3,3E1,3.09E2,2.13E2,7.6E1,1.103E3,3.245E3,3.36E2,7.8E1,9E0,1.3E1,5.38E2,1.06E2,1.369E3,1.417E3,3.86E2,3.23E2,4E0,1.2E1,5.756E3,2.11E2,2.2E1,8E0,2.32E2,7.7E1,1.38E2,7.5E1,3.8E1,3.8E1,5.35E2,5.68E2,7.41E2,2.504E3,1.75E2,1.61E2,2.1E1,5.7E1,2E0,1.1E1,3.66E2,1.72E2,3.4E1,7.2E1,1.227E3,1.42E2,1.77E2,1.24E3,2.04E2,1.82E2,2.74E2,4.9E1,1E1,2E0,5.567E3,1.89E2,8E1,1.31E2,1E1,1.2E1,5E0,3E0,1.56E2,7.6E1,4.1E1,3.6E1,9.5E1,4.3E1,3E0,7.2E1,3.6E1,2E0,8E0,3E1,5.09E2,2.6E1,4.67E2,1.01E2,1.07E2,6.34E2,2.41E2,2.263E3,5.2E1,1.23E2,1.9E1,1.42E2,1.3E1,8E0,3.5E1,2.2E1,2.85E2,8.1E1,4.1E1,1.31E2,3.2E1,2E0,5.1E1,2.1E1],"tree_param":{"num_deleted":"0","num_feature":"6","num_nodes":"115","size_leaf_vector":"1"}},{"base_weights":[-1.6413359E-3,-9.24018E-2,1.6595745E-1,-1.0435083E-1,6.485665E-1,1.4513765E-1,7.757163E-1,-1.1276128E-1,1.22576036E-1,7.1242374E-1,2.5436378E-1,-5.0237767E-2,1.8855098E-1,9.818382E-1,-2.5790792E-2,-1.1769368E-1,1.621144E-1,3.6203837E-1,5.2110236E-2,6.043513E-1,9.02469E-1,1.4602989E-2,7.123214E-3,5.450516E-1,-7.320251E-2,5.7506675E-1,1.24409504E-1,1.0709302E0,6.07591E-1,5.0576553E-2,-1.6031885E-1,-9.1359034E-2,-1.7064437E-1,4.7855455E-1,-7.5255446E-2,-8.854171E-2,5.1122105E-1,-4.410203E-2,4.083539E-1,7.5455153E-1,3.3035234E-1,1.3868371E-2,9.529926E-1,4.4809755E-2,-1.4514057E-1,8.040608E-3,-1.7121387E-1,1.789483E-1,7.966813E-1,5.6352556E-2,2.238505E-1,8.3532336E-4,5.4001566E-2,3.4512836E-1,1.0295602E0,5.8749495E-3,-2.0236382E-2,-3.135586E-3,-8.568036E-3,-5.7778396E-3,1.103357E-3,-1.036288E-2,-3.151127E-3,3.1908527E-2,2.6462963E-3,-1.7081842E-2,1.8088818E-3,-1.9545449E-2,2.2583438E-2,9.281986E-3,3.3875514E-2,-5.5159754E-3,1.3217288E-2,1.2522468E-2,2.5473779E-2,4.2487785E-2,2.8636483E-2,1.4808225E-2,3.6463764E-2,4.9530186E-2,5.438646E-3,-2.1155937E-2,7.6785977E-3,5.3070807E-3,-7.2903195E-3,-1.4147705E-2,1.4566814E-3,1.21147605E-2,-1.701255E-3,4.2293508E-2,1.6441935E-3,7.873326E-3,-1.2481625E-3,1.4608763E-2,-7.748107E-3,5.2593234E-3,2.331183E-2,-9.796381E-4,5.682174E-2,-3.0792633E-3,6.652415E-4],"categories":[],"categories_nodes":[],"categories_segments":[],"categories_sizes":[],"default_left":[0,0,0,0,0,0,0,0,0,0,0,0,0,0,0,0,0,0,0,0,0,0,0,0,0,0,0,0,0,0,0,0,0,0,0,0,0,0,0,0,0,0,0,0,0,0,0,0,0,0,0,0,0,0,0,0,0,0,0,0,0,0,0,0,0,0,0,0,0,0,0,0,0,0,0,0,0,0,0,0,0,0,0,0,0,0,0,0,0,0,0,0,0,0,0,0,0,0,0,0,0],"id":5,"left_children":[1,3,5,7,9,11,13,15,17,19,21,23,25,27,29,31,33,35,37,39,41,-1,-1,43,45,47,49,51,53,55,57,59,61,63,65,67,69,71,73,75,77,-1,79,-1,81,83,85,87,89,91,93,-1,-1,95,97,-1,99,-1,-1,-1,-1,-1,-1,-1,-1,-1,-1,-1,-1,-1,-1,-1,-1,-1,-1,-1,-1,-1,-1,-1,-1,-1,-1,-1,-1,-1,-1,-1,-1,-1,-1,-1,-1,-1,-1,-1,-1,-1,-1,-1,-1],"loss_changes":[2.3767738E2,8.98103E1,6.957057E1,1.9053581E1,3.8715897E0,4.503988E1,2.9928009E1,1.3061844E1,6.005118E0,2.2889328E0,5.962801E-2,1.3245764E1,1.07623566E2,4.1506195E0,3.985033E-1,1.3163254E1,1.2805283E1,5.4899817E0,9.512187E0,3.4958076E0,1.2516251E0,0E0,0E0,8.854909E0,7.4146957E0,5.4108932E1,2.5210411E1,1.0853271E0,2.967205E0,1.20852105E-1,4.342407E-3,1.7332325E1,1.235186E1,4.9256344E0,2.921362E0,3.6067426E0,3.1768084E0,4.5021567E0,8.1448936E-1,5.173111E-1,2.4771667E-1,0E0,1.289341E0,0E0,1.1444415E0,7.712674E0,9.455504E0,3.0167823E0,1.4850067E1,1.8207796E1,3.9231064E1,0E0,0E0,5.321369E-1,1.2556705E0,0E0,1.8848974E-2,0E0,0E0,0E0,0E0,0E0,0E0,0E0,0E0,0E0,0E0,0E0,0E0,0E0,0E0,0E0,0E0,0E0,0E0,0E0,0E0,0E0,0E0,0E0,0E0,0E0,0E0,0E0,0E0,0E0,0E0,0E0,0E0,0E0,0E0,0E0,0E0,0E0,0E0,0E0,0E0,0E0,0E0,0E0,0E0],"parents":[2147483647,0,0,1,1,2,2,3,3,4,4,5,5,6,6,7,7,8,8,9,9,10,10,11,11,12,12,13,13,14,14,15,15,16,16,17,17,18,18,19,19,20,20,23,23,24,24,25,25,26,26,27,27,28,28,29,29,30,30,31,31,32,32,33,33,34,34,35,35,36,36,37,37,38,38,39,39,40,40,42,42,44,44,45,45,46,46,47,47,48,48,49,49,50,50,53,53,54,54,56,56],"right_children":[2,4,6,8,10,12,14,16,18,20,22,24,26,28,30,32,34,36,38,40,42,-1,-1,44,46,48,50,52,54,56,58,60,62,64,66,68,70,72,74,76,78,-1,80,-1,82,84,86,88,90,92,94,-1,-1,96,98,-1,100,-1,-1,-1,-1,-1,-1,-1,-1,-1,-1,-1,-1,-1,-1,-1,-1,-1,-1,-1,-1,-1,-1,-1,-1,-1,-1,-1,-1,-1,-1,-1,-1,-1,-1,-1,-1,-1,-1,-1,-1,-1,-1,-1,-1],"split_conditions":[2.48E2,1.6345709E2,1.3125613E2,3.8445053E1,1.54621E2,1.9990436E0,1.3748817E2,1.0358045E2,3.930487E1,1.3159982E2,1.88E2,5.980738E-2,1.2903808E0,1.0879341E2,3.38E2,8.026967E0,1.1301383E2,1.2827145E1,1.3159982E2,1.03E2,8.8E1,1.4602989E-2,7.123214E-3,6.862042E-2,4.58E2,9.850933E-1,3.9243065E1,2.98E2,1.3502289E2,1.6345709E2,3.48E2,5.2527213E0,1.6287638E1,1.2903808E0,1.1788759E2,9.9191505E1,5.0945175E-1,7.020532E1,5.137619E1,3.6130636E0,2.38E2,1.3868371E-2,9.777442E1,4.4809755E-2,5.97598E-1,1.8944663E0,1.5337752E0,5.18E2,1.508815E0,5.4787335E0,7.872011E1,8.3532336E-4,5.4001566E-2,1.2817264E2,8.635355E1,5.8749495E-3,1.467457E2,-3.135586E-3,-8.568036E-3,-5.7778396E-3,1.103357E-3,-1.036288E-2,-3.151127E-3,3.1908527E-2,2.6462963E-3,-1.7081842E-2,1.8088818E-3,-1.9545449E-2,2.2583438E-2,9.281986E-3,3.3875514E-2,-5.5159754E-3,1.3217288E-2,1.2522468E-2,2.5473779E-2,4.2487785E-2,2.8636483E-2,1.4808225E-2,3.6463764E-2,4.9530186E-2,5.438646E-3,-2.1155937E-2,7.6785977E-3,5.3070807E-3,-7.2903195E-3,-1.4147705E-2,1.4566814E-3,1.21147605E-2,-1.701255E-3,4.2293508E-2,1.6441935E-3,7.873326E-3,-1.2481625E-3,1.4608763E-2,-7.748107E-3,5.2593234E-3,2.331183E-2,-9.796381E-4,5.682174E-2,-3.0792633E-3,6.652415E-4],"split_indices":[0,1,1,2,4,1,4,1,4,4,0,2,2,4,0,1,1,1,4,0,0,0,0,1,0,2,2,0,4,1,0,1,2,2,1,2,4,2,2,2,0,0,2,0,1,2,1,0,4,2,4,0,0,4,2,0,4,0,0,0,0,0,0,0,0,0,0,0,0,0,0,0,0,0,0,0,0,0,0,0,0,0,0,0,0,0,0,0,0,0,0,0,0,0,0,0,0,0,0,0,0],"split_type":[0,0,0,0,0,0,0,0,0,0,0,0,0,0,0,0,0,0,0,0,0,0,0,0,0,0,0,0,0,0,0,0,0,0,0,0,0,0,0,0,0,0,0,0,0,0,0,0,0,0,0,0,0,0,0,0,0,0,0,0,0,0,0,0,0,0,0,0,0,0,0,0,0,0,0,0,0,0,0,0,0,0,0,0,0,0,0,0,0,0,0,0,0,0,0,0,0,0,0,0,0],"sum_hessian":[1.5623E4,1.0135E4,5.488E3,9.975E3,1.6E2,5.308E3,1.8E2,9.619E3,3.56E2,1.37E2,2.3E1,9.65E2,4.343E3,1.43E2,3.7E1,9.45E3,1.69E2,8E1,2.76E2,9E1,4.7E1,1.6E1,7E0,3.5E1,9.3E2,6.17E2,3.726E3,1.14E2,2.9E1,2.4E1,1.3E1,6.313E3,3.137E3,7.2E1,9.7E1,2E1,6E1,2.18E2,5.8E1,5.7E1,3.3E1,4E0,4.3E1,2.3E1,1.2E1,5.09E2,4.21E2,2.22E2,3.95E2,2.213E3,1.513E3,1E0,1.13E2,1.9E1,1E1,1.2E1,1.2E1,2E0,1.1E1,5.203E3,1.11E3,2.34E3,7.97E2,5.2E1,2E1,2.8E1,6.9E1,1.3E1,7E0,2.1E1,3.9E1,1.8E2,3.8E1,2.4E1,3.4E1,3.5E1,2.2E1,3.2E1,1E0,4.1E1,2E0,6E0,6E0,3.11E2,1.98E2,2.7E2,1.51E2,1.71E2,5.1E1,3.71E2,2.4E1,9.86E2,1.227E3,1.282E3,2.31E2,7E0,1.2E1,1E0,9E0,5E0,7E0],"tree_param":{"num_deleted":"0","num_feature":"6","num_nodes":"101","size_leaf_vector":"1"}},{"base_weights":[5.397151E-4,-2.6241684E-2,4.245925E-1,-1.9815095E-1,-1.8042537E-3,2.6410913E-1,6.30216E-1,-3.9503645E-2,-2.1190205E-1,3.1368172E-1,-2.0543773E-2,1.49263E-1,5.0960165E-1,7.1574926E-1,-2.3255835E-3,-9.800739E-2,2.9469958E-1,-2.3755133E-1,-1.5734307E-1,6.278391E-1,-1.1659825E-1,-4.8054677E-2,1.2761508E-1,2.3322211E-1,-9.687356E-2,5.8150977E-1,2.7794036E-1,5.4988366E-1,9.549699E-1,3.6580693E-2,-1.4362534E-2,-3.0666392E-3,-1.5517595E-1,2.1933107E-2,1.0664863E-2,-1.9566861E-1,-2.9894227E-1,1.1091677E-1,-1.8511291E-1,2.5137815E-1,9.36856E-1,-1.9376828E-1,-6.4228244E-2,4.732434E-2,-8.4544815E-2,2.2240455E-1,-4.4239704E-2,1.7016785E-2,3.1533653E-1,-1.6523672E-2,-1.8618217E-1,5.196655E-1,7.3174995E-1,5.8880323E-1,1.4433053E-1,5.708995E-1,1.2426694E-2,5.1120847E-2,6.095403E-1,-9.308508E-3,1.3557959E-1,-1.3044375E-2,3.5823209E-3,-8.919442E-3,-2.2894638E-3,-1.3474988E-2,-6.880082E-3,-1.6163152E-2,-1.2392701E-2,-3.4373496E-3,1.6631344E-2,-9.947376E-3,2.4390612E-3,1.8238647E-2,-1.273706E-2,5.2781414E-2,2.5313819E-2,-2.3864738E-3,-1.472606E-2,4.479521E-3,-9.704614E-3,-1.8202125E-3,1.3208401E-2,-7.005021E-3,-2.0547302E-3,5.380008E-3,1.995301E-2,-1.7839653E-2,-2.1882833E-4,-6.894902E-4,2.2245284E-2,1.909507E-2,2.6421237E-3,-1.4753411E-2,1.4602528E-3,-6.793245E-3,-1.403531E-2,3.42881E-2,2.1411775E-2,4.8969973E-2,2.5471268E-2,4.0984966E-2,1.5338877E-2,2.3184994E-3,9.549616E-3,2.4656055E-2,3.648195E-2,3.4143652E-3,-6.1028483E-3,1.753634E-2,4.0316425E-2,5.5431887E-3,-3.5906315E-3,1.3712383E-2,5.190842E-3],"categories":[],"categories_nodes":[],"categories_segments":[],"categories_sizes":[],"default_left":[0,0,0,0,0,0,0,0,0,0,0,0,0,0,0,0,0,0,0,0,0,0,0,0,0,0,0,0,0,0,0,0,0,0,0,0,0,0,0,0,0,0,0,0,0,0,0,0,0,0,0,0,0,0,0,0,0,0,0,0,0,0,0,0,0,0,0,0,0,0,0,0,0,0,0,0,0,0,0,0,0,0,0,0,0,0,0,0,0,0,0,0,0,0,0,0,0,0,0,0,0,0,0,0,0,0,0,0,0,0,0,0,0,0,0],"id":6,"left_children":[1,3,5,7,9,11,13,15,17,19,21,23,25,27,29,31,33,35,37,39,41,43,45,47,49,51,53,55,57,59,-1,61,63,-1,-1,65,67,69,71,73,75,77,79,81,83,85,87,89,91,93,95,97,99,101,103,105,107,-1,109,111,113,-1,-1,-1,-1,-1,-1,-1,-1,-1,-1,-1,-1,-1,-1,-1,-1,-1,-1,-1,-1,-1,-1,-1,-1,-1,-1,-1,-1,-1,-1,-1,-1,-1,-1,-1,-1,-1,-1,-1,-1,-1,-1,-1,-1,-1,-1,-1,-1,-1,-1,-1,-1,-1,-1],"loss_changes":[1.7607448E2,6.1263126E1,3.0225769E1,3.9511871E0,7.549748E1,1.4556553E1,2.1805313E1,2.8834949E0,2.2996216E0,9.685897E1,4.9138042E1,7.3588114E0,2.5870018E0,1.356073E1,5.536912E-1,6.779777E-1,1.6425025E-1,2.8572693E0,4.0209312E0,4.7926254E1,1.2120967E0,3.5389164E1,3.0765408E1,4.699332E0,6.4993376E-1,7.811737E-1,1.6179254E0,2.3874664E0,2.7317352E0,2.0115314E-1,0E0,9.4329566E-1,1.8988764E-1,0E0,0E0,2.8653145E0,4.88945E-1,2.054364E0,1.5855579E0,1.0882486E1,1.1074539E1,1.7810311E0,3.6529317E0,5.1100643E1,1.7746082E1,2.4638851E1,8.371127E0,9.815881E-1,3.3346138E0,6.327543E-1,1.6637814E-1,1.1034622E0,1.3730602E0,5.2995825E-1,1.2827408E-1,2.1588821E0,7.5945996E-2,0E0,1.0414162E0,2.4081056E-1,3.3191174E-2,0E0,0E0,0E0,0E0,0E0,0E0,0E0,0E0,0E0,0E0,0E0,0E0,0E0,0E0,0E0,0E0,0E0,0E0,0E0,0E0,0E0,0E0,0E0,0E0,0E0,0E0,0E0,0E0,0E0,0E0,0E0,0E0,0E0,0E0,0E0,0E0,0E0,0E0,0E0,0E0,0E0,0E0,0E0,0E0,0E0,0E0,0E0,0E0,0E0,0E0,0E0,0E0,0E0,0E0],"parents":[2147483647,0,0,1,1,2,2,3,3,4,4,5,5,6,6,7,7,8,8,9,9,10,10,11,11,12,12,13,13,14,14,15,15,16,16,17,17,18,18,19,19,20,20,21,21,22,22,23,23,24,24,25,25,26,26,27,27,28,28,29,29,31,31,32,32,35,35,36,36,37,37,38,38,39,39,40,40,41,41,42,42,43,43,44,44,45,45,46,46,47,47,48,48,49,49,50,50,51,51,52,52,53,53,54,54,55,55,56,56,58,58,59,59,60,60],"right_children":[2,4,6,8,10,12,14,16,18,20,22,24,26,28,30,32,34,36,38,40,42,44,46,48,50,52,54,56,58,60,-1,62,64,-1,-1,66,68,70,72,74,76,78,80,82,84,86,88,90,92,94,96,98,100,102,104,106,108,-1,110,112,114,-1,-1,-1,-1,-1,-1,-1,-1,-1,-1,-1,-1,-1,-1,-1,-1,-1,-1,-1,-1,-1,-1,-1,-1,-1,-1,-1,-1,-1,-1,-1,-1,-1,-1,-1,-1,-1,-1,-1,-1,-1,-1,-1,-1,-1,-1,-1,-1,-1,-1,-1,-1,-1,-1],"split_conditions":[1.026468E2,1.154867E-1,1.0516615E2,1.095873E0,1.6374396E-1,1.6345709E2,1.3748817E2,1.0208737E0,3.8132763E1,1.3824104E0,3.523394E1,4.5552494E1,1.467457E2,1.3125613E2,1.6834756E2,3.7696478E-1,5.6477534E-3,1.1114972E1,3.2101948E-2,1.514843E-1,4.7867937E0,1.4396164E0,5.399238E-1,1.0479202E2,1.1081482E2,1.3502289E2,3.8445053E1,8.626498E1,7.669599E1,1.54621E2,-1.4362534E-2,3.6309637E-2,2.9887657E0,2.1933107E-2,1.0664863E-2,5.085461E0,9.959737E0,1.00075435E-2,1.1610559E2,9.978197E0,6.9080253E0,3.1857926E-1,1.15359745E1,1.9870464E0,4.9272564E-1,5.0317484E-1,4.8065014E1,3.4076576E1,1.1301383E2,1.1007519E0,3.523394E1,3.6130636E0,1.3748817E2,1.54621E2,1.54621E2,6.170839E-1,1.635203E2,5.1120847E-2,1.3159982E2,1.4138786E2,1.0358045E2,-1.3044375E-2,3.5823209E-3,-8.919442E-3,-2.2894638E-3,-1.3474988E-2,-6.880082E-3,-1.6163152E-2,-1.2392701E-2,-3.4373496E-3,1.6631344E-2,-9.947376E-3,2.4390612E-3,1.8238647E-2,-1.273706E-2,5.2781414E-2,2.5313819E-2,-2.3864738E-3,-1.472606E-2,4.479521E-3,-9.704614E-3,-1.8202125E-3,1.3208401E-2,-7.005021E-3,-2.0547302E-3,5.380008E-3,1.995301E-2,-1.7839653E-2,-2.1882833E-4,-6.894902E-4,2.2245284E-2,1.909507E-2,2.6421237E-3,-1.4753411E-2,1.4602528E-3,-6.793245E-3,-1.403531E-2,3.42881E-2,2.1411775E-2,4.8969973E-2,2.5471268E-2,4.0984966E-2,1.5338877E-2,2.3184994E-3,9.549616E-3,2.4656055E-2,3.648195E-2,3.4143652E-3,-6.1028483E-3,1.753634E-2,4.0316425E-2,5.5431887E-3,-3.5906315E-3,1.3712383E-2,5.190842E-3],"split_indices":[1,3,2,1,3,1,4,1,1,4,2,4,4,1,2,1,2,1,2,3,1,2,3,1,4,4,2,4,4,4,0,1,4,0,0,1,4,2,4,1,1,2,1,1,3,3,2,4,1,2,2,2,4,4,4,4,2,0,4,4,1,0,0,0,0,0,0,0,0,0,0,0,0,0,0,0,0,0,0,0,0,0,0,0,0,0,0,0,0,0,0,0,0,0,0,0,0,0,0,0,0,0,0,0,0,0,0,0,0,0,0,0,0,0,0],"split_type":[0,0,0,0,0,0,0,0,0,0,0,0,0,0,0,0,0,0,0,0,0,0,0,0,0,0,0,0,0,0,0,0,0,0,0,0,0,0,0,0,0,0,0,0,0,0,0,0,0,0,0,0,0,0,0,0,0,0,0,0,0,0,0,0,0,0,0,0,0,0,0,0,0,0,0,0,0,0,0,0,0,0,0,0,0,0,0,0,0,0,0,0,0,0,0,0,0,0,0,0,0,0,0,0,0,0,0,0,0,0,0,0,0,0,0],"sum_hessian":[1.5502E4,1.4582E4,9.2E2,1.814E3,1.2768E4,5.18E2,4.02E2,1.45E2,1.669E3,7.15E2,1.2053E4,3.54E2,1.64E2,3.54E2,4.8E1,1.24E2,2.1E1,1.133E3,5.36E2,4.13E2,3.02E2,1.0166E4,1.887E3,2.64E2,9E1,1.24E2,4E1,2.11E2,1.43E2,4.3E1,5E0,4.7E1,7.7E1,6E0,1.5E1,6.76E2,4.57E2,5E1,4.86E2,1.87E2,2.26E2,1.21E2,1.81E2,2.813E3,7.353E3,1.216E3,6.71E2,7.3E1,1.91E2,4.8E1,4.2E1,9.1E1,3.3E1,1.1E1,2.9E1,2.03E2,8E0,1.18E2,2.5E1,3E1,1.3E1,1E1,3.7E1,6.3E1,1.4E1,2.96E2,3.8E2,3.06E2,1.51E2,2.8E1,2.2E1,4.59E2,2.7E1,1.53E2,3.4E1,1.76E2,5E1,5E1,7.1E1,8.3E1,9.8E1,2.03E3,7.83E2,3.226E3,4.127E3,7.38E2,4.78E2,7.5E1,5.96E2,6.9E1,4E0,1.52E2,3.9E1,6E0,4.2E1,2.9E1,1.3E1,3E1,6.1E1,1.4E1,1.9E1,5E0,6E0,1E1,1.9E1,1.39E2,6.4E1,6E0,2E0,1.2E1,1.3E1,1E1,2E1,1E0,1.2E1],"tree_param":{"num_deleted":"0","num_feature":"6","num_nodes":"115","size_leaf_vector":"1"}},{"base_weights":[6.975246E-5,-7.8827225E-2,1.654427E-1,-9.179054E-2,1.767993E-1,1.969951E-1,-6.044803E-2,-1.3141528E-2,-1.2165806E-1,3.6935177E-1,-5.1069446E-2,1.599664E-1,5.561087E-1,5.351563E-1,-8.4411085E-2,-1.5060905E-1,5.8206733E-2,-1.1672204E-1,-2.7640098E-1,1.8751392E-1,6.9256175E-1,-1.7832711E-1,4.873756E-1,3.024339E-1,1.09759934E-1,7.711789E-1,3.554575E-1,1.10437395E-2,7.438663E-1,-4.8452422E-2,-2.9917E-1,-1.7114665E-1,-3.8094703E-2,3.4589347E-1,1.25719765E-2,-1.2127499E-1,1.2270903E-1,2.5182047E-1,-3.0226097E-1,4.396104E-2,4.488571E-1,5.860392E-1,4.353009E-2,-2.0425281E-1,2.185071E-2,4.1887473E-2,2.6490811E-2,1.1505642E-2,5.528195E-1,-6.956082E-2,1.5876563E-1,5.864147E-1,9.358991E-1,-1.0078483E-1,5.5822784E-1,7.6954127E-3,3.887043E-2,6.3512094E-2,-1.2208991E-1,-3.8222325E-1,-8.45533E-2,-6.2026936E-3,-1.2750941E-2,2.6961425E-2,-1.29478E-2,6.086977E-3,3.3657562E-2,4.0337415E-3,-4.7281454E-3,-6.5622167E-3,-2.7030425E-3,2.8656248E-2,-1.3617009E-2,-1.1643776E-2,1.9270288E-2,-1.784262E-2,-1.0589959E-2,2.458195E-2,-4.8687705E-3,3.7012495E-2,8.076141E-3,2.3839338E-2,4.2241063E-2,-3.099019E-3,-1.6627079E-2,1.9688273E-2,-1.619765E-2,-1.5339777E-3,3.4905538E-2,3.318354E-2,-1.2892069E-3,1.1954735E-3,-1.3746992E-2,-6.054252E-3,9.396221E-3,2.40714E-2,4.1209433E-2,3.0500889E-3,4.763099E-2,-9.894271E-3,3.5129797E-3,3.618474E-2,1.779469E-2,-1.5120982E-2,6.5611578E-3,-4.632236E-3,-2.0661652E-2,-2.2374386E-2,-1.6223524E-2,-1.835416E-2,2.216673E-4],"categories":[],"categories_nodes":[],"categories_segments":[],"categories_sizes":[],"default_left":[0,0,0,0,0,0,0,0,0,0,0,0,0,0,0,0,0,0,0,0,0,0,0,0,0,0,0,0,0,0,0,0,0,0,0,0,0,0,0,0,0,0,0,0,0,0,0,0,0,0,0,0,0,0,0,0,0,0,0,0,0,0,0,0,0,0,0,0,0,0,0,0,0,0,0,0,0,0,0,0,0,0,0,0,0,0,0,0,0,0,0,0,0,0,0,0,0,0,0,0,0,0,0,0,0,0,0,0,0,0,0],"id":7,"left_children":[1,3,5,7,9,11,13,15,17,19,21,23,25,27,29,31,33,35,37,39,41,43,45,47,49,51,53,-1,55,57,59,61,63,65,67,69,71,73,75,77,79,81,-1,83,-1,85,-1,87,89,91,93,95,97,99,101,-1,-1,103,105,107,109,-1,-1,-1,-1,-1,-1,-1,-1,-1,-1,-1,-1,-1,-1,-1,-1,-1,-1,-1,-1,-1,-1,-1,-1,-1,-1,-1,-1,-1,-1,-1,-1,-1,-1,-1,-1,-1,-1,-1,-1,-1,-1,-1,-1,-1,-1,-1,-1,-1,-1],"loss_changes":[2.0310925E2,3.4940033E1,3.584845E1,2.356173E1,2.23521E1,5.857965E1,8.851307E0,2.7098652E1,5.5206604E0,1.6091152E1,1.6120886E1,2.8585121E1,1.7505356E1,1.4099469E0,4.5726357E0,2.1748524E0,2.387642E1,7.69693E0,3.1359081E0,6.658217E0,1.3673592E0,3.1203613E0,8.286133E-1,7.5897316E1,2.602275E1,5.477188E0,1.994643E1,0E0,1.5738964E-1,4.212595E0,1.4827743E0,3.1202812E0,1.8883364E1,1.8183725E1,1.1469944E1,4.6271896E0,2.3643696E1,8.0198216E-1,9.8124504E-1,7.3875666E0,5.155242E0,1.4349174E0,0E0,3.3194966E0,0E0,7.712175E-1,0E0,1.4011307E1,3.5934937E1,1.2215761E1,1.8994984E1,1.9996681E0,1.4486618E0,1.1266738E0,4.7309036E0,0E0,0E0,5.069543E0,2.6021276E0,8.472538E-2,6.301622E-1,0E0,0E0,0E0,0E0,0E0,0E0,0E0,0E0,0E0,0E0,0E0,0E0,0E0,0E0,0E0,0E0,0E0,0E0,0E0,0E0,0E0,0E0,0E0,0E0,0E0,0E0,0E0,0E0,0E0,0E0,0E0,0E0,0E0,0E0,0E0,0E0,0E0,0E0,0E0,0E0,0E0,0E0,0E0,0E0,0E0,0E0,0E0,0E0,0E0,0E0],"parents":[2147483647,0,0,1,1,2,2,3,3,4,4,5,5,6,6,7,7,8,8,9,9,10,10,11,11,12,12,13,13,14,14,15,15,16,16,17,17,18,18,19,19,20,20,21,21,22,22,23,23,24,24,25,25,26,26,28,28,29,29,30,30,31,31,32,32,33,33,34,34,35,35,36,36,37,37,38,38,39,39,40,40,41,41,43,43,45,45,47,47,48,48,49,49,50,50,51,51,52,52,53,53,54,54,57,57,58,58,59,59,60,60],"right_children":[2,4,6,8,10,12,14,16,18,20,22,24,26,28,30,32,34,36,38,40,42,44,46,48,50,52,54,-1,56,58,60,62,64,66,68,70,72,74,76,78,80,82,-1,84,-1,86,-1,88,90,92,94,96,98,100,102,-1,-1,104,106,108,110,-1,-1,-1,-1,-1,-1,-1,-1,-1,-1,-1,-1,-1,-1,-1,-1,-1,-1,-1,-1,-1,-1,-1,-1,-1,-1,-1,-1,-1,-1,-1,-1,-1,-1,-1,-1,-1,-1,-1,-1,-1,-1,-1,-1,-1,-1,-1,-1,-1,-1],"split_conditions":[2.73E2,3.8445053E1,6.627083E-1,3.8293319E0,5.0420016E-1,1.0516615E2,6.219939E-1,1.154867E-1,9.94195E-1,4.999598E-1,1.0311986E2,1.3750873E0,1.4197493E2,5.736865E-1,9.9223065E-1,4.349734E-1,1.8061163E-1,9.465528E-1,2.0323093E0,6.097431E1,6.793706E1,1.0457591E2,5.602336E1,9.850933E-1,4.5989618E-1,5.0049675E-1,5.68E2,1.10437395E-2,2.88E2,4.98E2,3.6861023E1,5.8E1,7.3167183E-3,1.2185761E0,1.2413676E0,1.6287638E1,2.7428427E0,1.1007519E0,6.0099635E0,2.2416572E-1,9.833928E1,5.008674E-1,4.353009E-2,6.3055575E-1,2.185071E-2,1.18E2,2.6490811E-2,7.58E2,4.6183112E-1,5.8760886E0,3.6130636E0,8.5106415E1,3.38E2,9.409635E1,1.563E3,7.6954127E-3,3.887043E-2,2.3468938E0,5.2802456E1,5.595994E0,3.53E2,-6.2026936E-3,-1.2750941E-2,2.6961425E-2,-1.29478E-2,6.086977E-3,3.3657562E-2,4.0337415E-3,-4.7281454E-3,-6.5622167E-3,-2.7030425E-3,2.8656248E-2,-1.3617009E-2,-1.1643776E-2,1.9270288E-2,-1.784262E-2,-1.0589959E-2,2.458195E-2,-4.8687705E-3,3.7012495E-2,8.076141E-3,2.3839338E-2,4.2241063E-2,-3.099019E-3,-1.6627079E-2,1.9688273E-2,-1.619765E-2,-1.5339777E-3,3.4905538E-2,3.318354E-2,-1.2892069E-3,1.1954735E-3,-1.3746992E-2,-6.054252E-3,9.396221E-3,2.40714E-2,4.1209433E-2,3.0500889E-3,4.763099E-2,-9.894271E-3,3.5129797E-3,3.618474E-2,1.779469E-2,-1.5120982E-2,6.5611578E-3,-4.632236E-3,-2.0661652E-2,-2.2374386E-2,-1.6223524E-2,-1.835416E-2,2.216673E-4],"split_indices":[0,2,3,5,3,2,2,3,3,3,5,2,2,2,3,2,3,3,2,2,5,2,2,2,3,3,0,0,0,0,5,0,3,2,2,2,2,2,2,3,5,3,0,3,0,0,0,0,3,2,2,5,0,5,0,0,0,5,5,5,0,0,0,0,0,0,0,0,0,0,0,0,0,0,0,0,0,0,0,0,0,0,0,0,0,0,0,0,0,0,0,0,0,0,0,0,0,0,0,0,0,0,0,0,0,0,0,0,0,0,0],"split_type":[0,0,0,0,0,0,0,0,0,0,0,0,0,0,0,0,0,0,0,0,0,0,0,0,0,0,0,0,0,0,0,0,0,0,0,0,0,0,0,0,0,0,0,0,0,0,0,0,0,0,0,0,0,0,0,0,0,0,0,0,0,0,0,0,0,0,0,0,0,0,0,0,0,0,0,0,0,0,0,0,0,0,0,0,0,0,0,0,0,0,0,0,0,0,0,0,0,0,0,0,0,0,0,0,0,0,0,0,0,0,0],"sum_hessian":[1.5565E4,1.0538E4,5.027E3,1.003E4,5.08E2,4.411E3,6.16E2,2.761E3,7.269E3,2.75E2,2.33E2,4E3,4.11E2,2.3E1,5.93E2,9.43E2,1.818E3,7.046E3,2.23E2,1.77E2,9.8E1,1.89E2,4.4E1,1.041E3,2.959E3,1.97E2,2.14E2,1E1,1.3E1,5.09E2,8.4E1,7.97E2,1.46E2,2.48E2,1.57E3,6.915E3,1.31E2,1E1,2.13E2,1.15E2,6.2E1,6.4E1,3.4E1,1.82E2,7E0,4E0,4E1,4.82E2,5.59E2,6.35E2,2.324E3,9.5E1,1.02E2,6.6E1,1.48E2,1E0,1.2E1,2.02E2,3.07E2,6E1,2.4E1,5.12E2,2.85E2,4E1,1.06E2,1.48E2,1E2,9.6E2,6.1E2,6.021E3,8.94E2,6.1E1,7E1,2E0,8E0,1.31E2,8.2E1,2.7E1,8.8E1,3E1,3.2E1,4.7E1,1.7E1,8.7E1,9.5E1,2E0,2E0,4.55E2,2.7E1,4.69E2,9E1,4.37E2,1.98E2,2.19E2,2.105E3,6.8E1,2.7E1,2E0,1E2,4.2E1,2.4E1,8E1,6.8E1,3.1E1,1.71E2,2.8E2,2.7E1,2.5E1,3.5E1,5E0,1.9E1],"tree_param":{"num_deleted":"0","num_feature":"6","num_nodes":"111","size_leaf_vector":"1"}},{"base_weights":[1.3223516E-3,-7.235496E-2,1.6608633E-1,-8.5242055E-2,1.6818722E-1,1.9770522E-1,-5.855407E-2,-3.599141E-2,-1.1211076E-1,3.4698525E-1,-4.320645E-2,1.6214657E-1,5.2791846E-1,5.3767365E-1,-8.346824E-2,-9.644102E-2,1.8782923E-1,-1.2555347E-1,7.5884864E-2,1.7392685E-1,6.526598E-1,-1.5970312E-1,2.0025864E-1,2.9798526E-1,1.1414315E-1,6.3177633E-1,2.313532E-2,2.693907E-1,7.100621E-1,-2.654729E-1,-4.4345494E-2,-1.1322327E-1,1.2710409E-1,4.7826585E-1,-6.96106E-2,4.501589E-1,-1.2843831E-1,-7.456279E-2,1.5902467E-1,-9.866281E-2,4.6223274E-1,5.850464E-1,4.255148E-2,-2.2969281E-2,-3.8233107E-1,1.0009651E-1,2.2642212E-2,-3.6238797E-3,5.460185E-1,2.6497308E-2,2.1044901E-1,8.036072E-1,4.2150334E-1,1.6674092E-1,-2.1706422E-1,1.0281305E-2,2.267592E-2,6.6653015E-3,3.7208684E-2,-1.1786181E-2,-3.1308705E-1,4.049524E-2,-1.7975378E-1,-7.3504387E-3,-3.985414E-3,-1.8649876E-2,1.1620796E-2,3.7957348E-2,5.4232E-3,-5.7490235E-3,5.608224E-3,-1.5204E-3,3.2406833E-2,-4.398233E-3,-7.499577E-3,-1.4811927E-2,-1.2269244E-3,2.4544328E-2,4.6548876E-3,-1.557487E-2,4.5969435E-3,3.3351738E-2,1.4396334E-2,3.468388E-2,2.4129463E-2,1.5197183E-2,-5.804977E-3,-4.5526265E-3,-1.9272981E-2,1.7847465E-2,-1.13527505E-2,2.7084509E-2,-3.2028083E-3,3.231126E-2,-2.2881906E-3,-5.3333375E-3,5.21275E-3,3.0397017E-2,6.214266E-3,2.4864094E-2,4.5628518E-2,-2.7070171E-3,2.5029415E-2,1.8223599E-2,-1.9119865E-3,-1.22648515E-2,1.2924719E-2,1.29705E-3,-2.4101892E-3,-1.6617192E-2,-2.0743211E-4,5.887275E-3,-1.2944035E-2,3.7791636E-2,-1.1074814E-2],"categories":[],"categories_nodes":[],"categories_segments":[],"categories_sizes":[],"default_left":[0,0,0,0,0,0,0,0,0,0,0,0,0,0,0,0,0,0,0,0,0,0,0,0,0,0,0,0,0,0,0,0,0,0,0,0,0,0,0,0,0,0,0,0,0,0,0,0,0,0,0,0,0,0,0,0,0,0,0,0,0,0,0,0,0,0,0,0,0,0,0,0,0,0,0,0,0,0,0,0,0,0,0,0,0,0,0,0,0,0,0,0,0,0,0,0,0,0,0,0,0,0,0,0,0,0,0,0,0,0,0,0,0,0,0],"id":8,"left_children":[1,3,5,7,9,11,13,15,17,19,21,23,25,27,29,31,33,35,37,39,41,43,45,47,49,51,53,55,57,59,61,63,65,67,69,71,73,75,77,79,81,83,-1,85,87,89,-1,91,93,95,97,99,101,103,105,-1,-1,-1,-1,107,109,111,113,-1,-1,-1,-1,-1,-1,-1,-1,-1,-1,-1,-1,-1,-1,-1,-1,-1,-1,-1,-1,-1,-1,-1,-1,-1,-1,-1,-1,-1,-1,-1,-1,-1,-1,-1,-1,-1,-1,-1,-1,-1,-1,-1,-1,-1,-1,-1,-1,-1,-1,-1,-1],"loss_changes":[1.8920404E2,3.3400146E1,3.4219055E1,1.3524071E1,2.0727623E1,4.9488846E1,8.88332E0,4.886095E1,1.672425E1,1.5597652E1,7.1794267E0,2.4829506E1,2.1479942E1,9.1868925E-1,4.0611663E0,1.0680159E1,5.745661E1,1.0310158E1,5.540477E0,1.5056143E1,9.372406E-1,5.1965904E0,2.0292313E0,7.4437E1,2.3789062E1,1.1945953E1,2.4852674E0,3.5893917E-2,1.7623377E-1,1.2162962E0,5.429681E0,2.9832726E0,1.0567348E1,3.7414856E1,3.377718E0,2.9690971E0,5.345581E0,1.7448202E0,6.18971E0,4.044735E0,3.1278782E0,5.890312E-1,0E0,3.292955E0,2.4136543E-2,5.1228337E0,0E0,1.4864258E1,3.24077E1,1.5304758E1,4.5921276E1,5.754532E0,5.857624E0,1.8378339E0,4.259194E-1,0E0,0E0,0E0,0E0,2.4607327E-2,5.043001E-1,6.7604012E0,7.2751913E0,0E0,0E0,0E0,0E0,0E0,0E0,0E0,0E0,0E0,0E0,0E0,0E0,0E0,0E0,0E0,0E0,0E0,0E0,0E0,0E0,0E0,0E0,0E0,0E0,0E0,0E0,0E0,0E0,0E0,0E0,0E0,0E0,0E0,0E0,0E0,0E0,0E0,0E0,0E0,0E0,0E0,0E0,0E0,0E0,0E0,0E0,0E0,0E0,0E0,0E0,0E0,0E0],"parents":[2147483647,0,0,1,1,2,2,3,3,4,4,5,5,6,6,7,7,8,8,9,9,10,10,11,11,12,12,13,13,14,14,15,15,16,16,17,17,18,18,19,19,20,20,21,21,22,22,23,23,24,24,25,25,26,26,27,27,28,28,29,29,30,30,31,31,32,32,33,33,34,34,35,35,36,36,37,37,38,38,39,39,40,40,41,41,43,43,44,44,45,45,47,47,48,48,49,49,50,50,51,51,52,52,53,53,54,54,59,59,60,60,61,61,62,62],"right_children":[2,4,6,8,10,12,14,16,18,20,22,24,26,28,30,32,34,36,38,40,42,44,46,48,50,52,54,56,58,60,62,64,66,68,70,72,74,76,78,80,82,84,-1,86,88,90,-1,92,94,96,98,100,102,104,106,-1,-1,-1,-1,108,110,112,114,-1,-1,-1,-1,-1,-1,-1,-1,-1,-1,-1,-1,-1,-1,-1,-1,-1,-1,-1,-1,-1,-1,-1,-1,-1,-1,-1,-1,-1,-1,-1,-1,-1,-1,-1,-1,-1,-1,-1,-1,-1,-1,-1,-1,-1,-1,-1,-1,-1,-1,-1,-1],"split_conditions":[2.88E2,3.8445053E1,6.627083E-1,1.3137869E0,5.0420016E-1,1.0516615E2,6.9036454E-1,9.850933E-1,1.1445031E2,4.999598E-1,7.020532E1,1.3750873E0,1.1081482E2,5.736865E-1,4.18606E0,1.88E2,1.0939306E0,1.5410515E-2,6.3E1,1.2817264E2,5.008674E-1,6.542384E-1,1.0457591E2,9.850933E-1,5.00213E-1,5.774035E-1,3.98E2,3.770842E1,3.23E2,9.850933E-1,6.18E2,1.09110445E-1,6.105317E-3,3.4595415E-1,1.08E2,2.3911893E0,2.8505027E0,3.9210427E0,1.1894244E-1,1.98E2,1.3748817E2,4.9999514E-1,4.255148E-2,3.217337E1,3.9145985E1,2.23E2,2.2642212E-2,5.980738E-2,1.210215E0,4.8227638E-1,5.0049675E-1,1.0545086E2,5.18E2,1.4138786E2,5.68E2,1.0281305E-2,2.267592E-2,6.6653015E-3,3.7208684E-2,8.08E2,3.1584105E1,5.535262E1,4.525751E0,-7.3504387E-3,-3.985414E-3,-1.8649876E-2,1.1620796E-2,3.7957348E-2,5.4232E-3,-5.7490235E-3,5.608224E-3,-1.5204E-3,3.2406833E-2,-4.398233E-3,-7.499577E-3,-1.4811927E-2,-1.2269244E-3,2.4544328E-2,4.6548876E-3,-1.557487E-2,4.5969435E-3,3.3351738E-2,1.4396334E-2,3.468388E-2,2.4129463E-2,1.5197183E-2,-5.804977E-3,-4.5526265E-3,-1.9272981E-2,1.7847465E-2,-1.13527505E-2,2.7084509E-2,-3.2028083E-3,3.231126E-2,-2.2881906E-3,-5.3333375E-3,5.21275E-3,3.0397017E-2,6.214266E-3,2.4864094E-2,4.5628518E-2,-2.7070171E-3,2.5029415E-2,1.8223599E-2,-1.9119865E-3,-1.22648515E-2,1.2924719E-2,1.29705E-3,-2.4101892E-3,-1.6617192E-2,-2.0743211E-4,5.887275E-3,-1.2944035E-2,3.7791636E-2,-1.1074814E-2],"split_indices":[0,2,3,2,3,2,2,2,4,3,2,2,4,2,2,0,4,3,0,4,3,3,2,2,3,3,0,4,0,2,0,3,3,3,0,2,2,2,3,0,4,3,0,4,2,0,0,2,4,4,3,2,0,4,0,0,0,0,0,0,4,4,2,0,0,0,0,0,0,0,0,0,0,0,0,0,0,0,0,0,0,0,0,0,0,0,0,0,0,0,0,0,0,0,0,0,0,0,0,0,0,0,0,0,0,0,0,0,0,0,0,0,0,0,0],"split_type":[0,0,0,0,0,0,0,0,0,0,0,0,0,0,0,0,0,0,0,0,0,0,0,0,0,0,0,0,0,0,0,0,0,0,0,0,0,0,0,0,0,0,0,0,0,0,0,0,0,0,0,0,0,0,0,0,0,0,0,0,0,0,0,0,0,0,0,0,0,0,0,0,0,0,0,0,0,0,0,0,0,0,0,0,0,0,0,0,0,0,0,0,0,0,0,0,0,0,0,0,0,0,0,0,0,0,0,0,0,0,0,0,0,0,0],"sum_hessian":[1.5584E4,1.0769E4,4.815E3,1.0222E4,5.47E2,4.221E3,5.94E2,3.609E3,6.613E3,2.96E2,2.51E2,3.812E3,4.09E2,2.3E1,5.71E2,2.842E3,7.67E2,6.172E3,4.41E2,1.9E2,1.06E2,1.7E2,8.1E1,9.94E2,2.818E3,3.39E2,7E1,1E1,1.3E1,1E2,4.71E2,2.644E3,1.98E2,3.6E2,4.07E2,3E1,6.142E3,1.57E2,2.84E2,9.8E1,9.2E1,8.2E1,2.4E1,1.06E2,6.4E1,5.9E1,2.2E1,4.49E2,5.45E2,1.476E3,1.342E3,1.85E2,1.54E2,4.4E1,2.6E1,9E0,1E0,1E0,1.2E1,1.6E1,8.4E1,2.9E2,1.81E2,1.315E3,1.329E3,3.4E1,1.64E2,2.04E2,1.56E2,3.26E2,8.1E1,9E0,2.1E1,2.136E3,4.006E3,2.8E1,1.29E2,4.6E1,2.38E2,4.6E1,5.2E1,4.1E1,5.1E1,3.7E1,4.5E1,2.3E1,8.3E1,1E0,6.3E1,3.3E1,2.6E1,4.4E1,4.05E2,4.66E2,7.9E1,5.44E2,9.32E2,2.38E2,1.104E3,5E1,1.35E2,2.2E1,1.32E2,2.2E1,2.2E1,2.5E1,1E0,8E0,8E0,7.9E1,5E0,2.31E2,5.9E1,7E0,1.74E2],"tree_param":{"num_deleted":"0","num_feature":"6","num_nodes":"115","size_leaf_vector":"1"}},{"base_weights":[4.4076925E-4,-7.199394E-2,1.5493204E-1,-8.640916E-2,3.31711E-1,1.3646662E-1,7.0460635E-1,-1.8047965E-1,-6.674341E-2,1.6468099E-1,5.244518E-1,-8.489524E-2,1.6696332E-1,7.729294E-1,-6.799439E-2,-1.0916847E-2,-1.948462E-1,7.666716E-2,-1.0024218E-1,4.537246E-1,-1.2903981E-2,5.773519E-1,1.4473972E-1,6.975976E-1,-1.1688174E-1,3.0579236E-1,1.1278469E-1,8.1583786E-1,1.6435605E-1,-1.2199402E-2,-8.210217E-2,-6.1376397E-2,2.7554044E-1,-1.7446226E-1,-3.2658476E-1,2.4014553E-2,4.0882188E-1,-1.2022389E-1,2.8242927E-2,5.486299E-1,1.8355724E-1,1.0940543E-1,-1.4315228E-1,8.233761E-1,5.206529E-1,8.01734E-3,9.7383976E-2,-1.2848067E-2,3.7633337E-2,-3.5527784E-3,-2.3101036E-1,3.7168145E-1,-2.0467433E-1,-9.5155336E-2,1.4795822E-1,8.3928806E-1,1.6005261E-1,4.638389E-1,4.626666E-2,-2.2955576E-2,5.017281E-4,-4.9363296E-2,-5.057867E-3,1.6771341E-3,-1.1809668E-2,2.0075614E-2,9.193755E-3,-1.0419224E-2,-5.5003534E-3,-3.7064196E-3,-1.6732348E-2,5.4295794E-3,-3.066693E-3,1.914083E-3,2.895076E-2,4.125077E-3,-6.443174E-3,-6.5511935E-3,1.1348354E-2,4.5438767E-3,2.7771194E-2,-9.542155E-3,1.05909705E-2,1.954018E-2,-4.601313E-4,-1.4907831E-2,1.6411635E-3,4.4791393E-2,-1.5348117E-3,3.0037466E-2,1.0024336E-3,2.1442415E-3,5.420144E-3,2.7807585E-3,-1.8145462E-2,-1.3609181E-2,3.6842332E-3,5.0527174E-3,2.1031704E-2,-5.615426E-3,-2.199627E-2,1.6216515E-2,-7.921607E-3,-6.993173E-3,8.653283E-3,1.6364992E-2,4.325671E-2,-6.1313035E-3,2.4180334E-2,2.0263672E-3,3.276155E-2,6.2454224E-4,3.5394572E-3,2.4437904E-4,-1.9660473E-3,-2.7803897E-3,-4.5351984E-4],"categories":[],"categories_nodes":[],"categories_segments":[],"categories_sizes":[],"default_left":[0,0,0,0,0,0,0,0,0,0,0,0,0,0,0,0,0,0,0,0,0,0,0,0,0,0,0,0,0,0,0,0,0,0,0,0,0,0,0,0,0,0,0,0,0,0,0,0,0,0,0,0,0,0,0,0,0,0,0,0,0,0,0,0,0,0,0,0,0,0,0,0,0,0,0,0,0,0,0,0,0,0,0,0,0,0,0,0,0,0,0,0,0,0,0,0,0,0,0,0,0,0,0,0,0,0,0,0,0,0,0,0,0,0,0,0,0],"id":9,"left_children":[1,3,5,7,9,11,13,15,17,19,21,23,25,27,29,31,33,35,37,39,41,43,45,47,49,51,53,55,57,59,61,63,65,67,69,71,73,75,77,79,81,83,85,87,89,-1,91,-1,-1,93,95,97,99,101,103,105,107,109,111,113,-1,115,-1,-1,-1,-1,-1,-1,-1,-1,-1,-1,-1,-1,-1,-1,-1,-1,-1,-1,-1,-1,-1,-1,-1,-1,-1,-1,-1,-1,-1,-1,-1,-1,-1,-1,-1,-1,-1,-1,-1,-1,-1,-1,-1,-1,-1,-1,-1,-1,-1,-1,-1,-1,-1,-1,-1],"loss_changes":[1.7392317E2,6.1604736E1,5.0257843E1,1.8889069E1,1.1664261E1,3.2424805E1,8.55117E0,4.2999077E0,4.061175E1,1.0117826E1,3.3111038E0,1.4648537E1,3.170652E1,3.730629E0,1.0018408E-2,2.0260878E0,4.3147697E0,2.7989769E1,1.7594894E1,1.8223171E0,1.9751246E0,1.6358109E0,6.4465404E-4,1.4024401E0,7.242263E0,3.9898964E1,2.222665E1,1.9878845E0,3.6756292E-1,1.1869587E-3,1.8688366E-3,1.9825447E0,1.6866422E-1,3.0643616E0,4.168682E-1,9.989867E0,1.3788731E1,1.0396828E1,2.9242832E1,1.20573044E-1,2.6263297E-1,2.1396663E0,1.6464047E0,1.6363525E0,4.919838E0,0E0,1.553297E-4,0E0,0E0,6.0161753E0,3.5201912E0,1.3854538E1,2.9057574E0,1.1730616E1,1.8798565E1,1.4768219E0,6.0807383E-1,2.165007E-1,6.5701865E-3,1.559175E-3,0E0,1.0052687E-3,0E0,0E0,0E0,0E0,0E0,0E0,0E0,0E0,0E0,0E0,0E0,0E0,0E0,0E0,0E0,0E0,0E0,0E0,0E0,0E0,0E0,0E0,0E0,0E0,0E0,0E0,0E0,0E0,0E0,0E0,0E0,0E0,0E0,0E0,0E0,0E0,0E0,0E0,0E0,0E0,0E0,0E0,0E0,0E0,0E0,0E0,0E0,0E0,0E0,0E0,0E0,0E0,0E0,0E0,0E0],"parents":[2147483647,0,0,1,1,2,2,3,3,4,4,5,5,6,6,7,7,8,8,9,9,10,10,11,11,12,12,13,13,14,14,15,15,16,16,17,17,18,18,19,19,20,20,21,21,22,22,23,23,24,24,25,25,26,26,27,27,28,28,29,29,30,30,31,31,32,32,33,33,34,34,35,35,36,36,37,37,38,38,39,39,40,40,41,41,42,42,43,43,44,44,46,46,49,49,50,50,51,51,52,52,53,53,54,54,55,55,56,56,57,57,58,58,59,59,61,61],"right_children":[2,4,6,8,10,12,14,16,18,20,22,24,26,28,30,32,34,36,38,40,42,44,46,48,50,52,54,56,58,60,62,64,66,68,70,72,74,76,78,80,82,84,86,88,90,-1,92,-1,-1,94,96,98,100,102,104,106,108,110,112,114,-1,116,-1,-1,-1,-1,-1,-1,-1,-1,-1,-1,-1,-1,-1,-1,-1,-1,-1,-1,-1,-1,-1,-1,-1,-1,-1,-1,-1,-1,-1,-1,-1,-1,-1,-1,-1,-1,-1,-1,-1,-1,-1,-1,-1,-1,-1,-1,-1,-1,-1,-1,-1,-1,-1,-1,-1],"split_conditions":[2.83E2,1.0358045E2,1.3125613E2,1.154867E-1,1.6345709E2,1.5337752E0,1.6345709E2,1.095873E0,3.2693317E0,7.3167183E-3,9.833928E1,1.5107516E-2,1.092118E0,9.833928E1,2.98E2,1.0208737E0,1.03E2,5.237666E0,2.7592306E1,1.1301383E2,3.3982227E1,2.1152985E2,3.733152E-1,5.48E2,4.58E2,1.648E3,4.5989618E-1,5.048589E-1,4.5684168E-1,2.93E2,3.28E2,4.3E1,2.3E1,3.8132763E1,2.0834665E0,4.8132008E-1,1.44754E-1,1.6374396E-1,4.8905763E-1,1.7750877E-1,1.1788759E2,1.1301383E2,1.18E2,2.73E2,1.78E2,8.01734E-3,3.8169768E-1,-1.2848067E-2,3.7633337E-2,9.9223065E-1,4.049494E1,1.514843E-1,1.833E3,1.986078E-1,2.7876916E0,4.5873088E-1,4.18E2,3.03E2,4.877905E-1,2.88E2,5.017281E-4,3.23E2,-5.057867E-3,1.6771341E-3,-1.1809668E-2,2.0075614E-2,9.193755E-3,-1.0419224E-2,-5.5003534E-3,-3.7064196E-3,-1.6732348E-2,5.4295794E-3,-3.066693E-3,1.914083E-3,2.895076E-2,4.125077E-3,-6.443174E-3,-6.5511935E-3,1.1348354E-2,4.5438767E-3,2.7771194E-2,-9.542155E-3,1.05909705E-2,1.954018E-2,-4.601313E-4,-1.4907831E-2,1.6411635E-3,4.4791393E-2,-1.5348117E-3,3.0037466E-2,1.0024336E-3,2.1442415E-3,5.420144E-3,2.7807585E-3,-1.8145462E-2,-1.3609181E-2,3.6842332E-3,5.0527174E-3,2.1031704E-2,-5.615426E-3,-2.199627E-2,1.6216515E-2,-7.921607E-3,-6.993173E-3,8.653283E-3,1.6364992E-2,4.325671E-2,-6.1313035E-3,2.4180334E-2,2.0263672E-3,3.276155E-2,6.2454224E-4,3.5394572E-3,2.4437904E-4,-1.9660473E-3,-2.7803897E-3,-4.5351984E-4],"split_indices":[0,1,1,3,1,1,1,1,5,3,5,5,5,5,0,1,0,1,1,1,5,1,3,0,0,0,3,3,3,0,0,0,0,1,1,3,3,3,3,5,1,1,0,0,0,0,3,0,0,3,5,3,0,3,1,3,0,0,3,0,0,0,0,0,0,0,0,0,0,0,0,0,0,0,0,0,0,0,0,0,0,0,0,0,0,0,0,0,0,0,0,0,0,0,0,0,0,0,0,0,0,0,0,0,0,0,0,0,0,0,0,0,0,0,0,0,0],"split_type":[0,0,0,0,0,0,0,0,0,0,0,0,0,0,0,0,0,0,0,0,0,0,0,0,0,0,0,0,0,0,0,0,0,0,0,0,0,0,0,0,0,0,0,0,0,0,0,0,0,0,0,0,0,0,0,0,0,0,0,0,0,0,0,0,0,0,0,0,0,0,0,0,0,0,0,0,0,0,0,0,0,0,0,0,0,0,0,0,0,0,0,0,0,0,0,0,0,0,0,0,0,0,0,0,0,0,0,0,0,0,0,0,0,0,0,0,0],"sum_hessian":[1.554E4,1.058E4,4.96E3,1.0216E4,3.64E2,4.8E3,1.6E2,1.765E3,8.451E3,1.96E2,1.68E2,5.81E2,4.219E3,1.47E2,1.3E1,1.38E2,1.627E3,1.6E3,6.851E3,7.4E1,1.22E2,1.47E2,2.1E1,2.2E1,5.59E2,1.183E3,3.036E3,1.37E2,1E1,3E0,1E1,1.18E2,2E1,1.411E3,2.16E2,1.382E3,2.18E2,5.929E3,9.22E2,5.4E1,2E1,6.3E1,5.9E1,2.5E1,1.22E2,1.4E1,7E0,1E0,2.1E1,2.81E2,2.78E2,1.048E3,1.35E2,4.39E2,2.597E3,1.32E2,5E0,2E0,8E0,2E0,1E0,5E0,5E0,7.7E1,4.1E1,7E0,1.3E1,9.23E2,4.88E2,7E0,2.09E2,6.94E2,6.88E2,6.9E1,1.49E2,2.42E2,5.687E3,5.12E2,4.1E2,1E0,5.3E1,1E0,1.9E1,1.8E1,4.5E1,3.1E1,2.8E1,2.3E1,2E0,1.05E2,1.7E1,2E0,5E0,2.42E2,3.9E1,2.45E2,3.3E1,1.61E2,8.87E2,9.8E1,3.7E1,5.7E1,3.82E2,2.08E2,2.389E3,7E0,1.25E2,3E0,2E0,1E0,1E0,4E0,4E0,1E0,1E0,4E0,1E0],"tree_param":{"num_deleted":"0","num_feature":"6","num_nodes":"117","size_leaf_vector":"1"}},{"base_weights":[1.0301152E-3,-2.1150526E-2,3.6045897E-1,3.2729767E-2,-7.5705215E-2,2.4931082E-1,5.2772665E-1,1.2586485E-1,-1.9196978E-2,-1.4197281E-1,-1.4792021E-2,3.1597185E-1,-9.819012E-2,7.22281E-1,3.6505905E-1,-5.2999746E-2,4.3291506E-1,-6.3522525E-2,2.296009E-1,-1.4835437E-1,1.6983421E-1,-6.676529E-2,1.4147455E-1,1.9727753E-1,4.7607878E-1,-1.338186E-1,-4.0415056E-2,4.7197297E-1,4.198302E-2,2.681422E-1,4.9770895E-1,1.1528136E-1,-9.939476E-2,8.21667E-2,6.0653317E-1,-1.3068105E-1,-1.0333161E-2,3.7490565E-1,9.30045E-3,-1.2986138E-1,-1.9250801E-1,-1.1753031E-1,5.147524E-1,-8.101231E-2,1.211305E-1,2.2633246E-1,-7.9631224E-2,3.3250767E-1,7.9704605E-2,3.7549365E-1,5.6213516E-1,1.6792297E-2,-1.7273748E-1,2.0781199E-2,-1.0975663E-2,6.462689E-1,1.04476875E-2,4.080046E-1,4.6438467E-2,5.516306E-1,1.6907626E-1,-1.0017542E-2,8.530221E-3,-8.302322E-3,1.9915018E-3,-4.2962474E-3,1.3250293E-2,3.302289E-2,-1.4944362E-2,-4.4248346E-3,-1.2674178E-2,2.4449045E-2,-3.3429414E-3,2.6205426E-2,4.977747E-3,-5.323472E-3,1.3001594E-2,-2.607483E-3,-6.8981457E-3,-8.841779E-3,-1.3126661E-2,9.332991E-3,-1.384023E-2,-1.0886983E-2,3.460818E-2,4.7485586E-2,-4.186399E-3,1.4706929E-2,-5.120204E-3,8.7282155E-3,1.7586686E-2,9.196966E-3,-5.349131E-3,-1.8663133E-2,1.7671844E-2,6.5038996E-3,-1.2662147E-2,2.389805E-2,-2.1676288E-3,2.5705812E-2,3.566903E-2,1.8689513E-2,-2.4821497E-3,-1.3849561E-2,-7.0497007E-3,1.1451515E-2,-2.51997E-4,2.0633984E-2,5.0059717E-2,8.167374E-3,4.258199E-2,-3.5782202E-4,6.148815E-3,2.0263007E-2,3.432111E-2,1.0261214E-2,-9.91265E-4],"categories":[],"categories_nodes":[],"categories_segments":[],"categories_sizes":[],"default_left":[0,0,0,0,0,0,0,0,0,0,0,0,0,0,0,0,0,0,0,0,0,0,0,0,0,0,0,0,0,0,0,0,0,0,0,0,0,0,0,0,0,0,0,0,0,0,0,0,0,0,0,0,0,0,0,0,0,0,0,0,0,0,0,0,0,0,0,0,0,0,0,0,0,0,0,0,0,0,0,0,0,0,0,0,0,0,0,0,0,0,0,0,0,0,0,0,0,0,0,0,0,0,0,0,0,0,0,0,0,0,0,0,0,0,0,0,0],"id":10,"left_children":[1,3,5,7,9,11,13,15,17,19,21,23,25,27,29,31,33,35,37,39,41,43,45,47,49,51,53,55,-1,57,59,61,63,65,67,69,71,73,75,77,79,81,83,85,87,89,91,93,95,97,99,101,103,105,-1,107,-1,109,111,113,115,-1,-1,-1,-1,-1,-1,-1,-1,-1,-1,-1,-1,-1,-1,-1,-1,-1,-1,-1,-1,-1,-1,-1,-1,-1,-1,-1,-1,-1,-1,-1,-1,-1,-1,-1,-1,-1,-1,-1,-1,-1,-1,-1,-1,-1,-1,-1,-1,-1,-1,-1,-1,-1,-1,-1,-1],"loss_changes":[1.23308174E2,4.2823982E1,1.6582191E1,3.545177E1,2.921864E1,1.2586334E1,1.1066185E1,1.441341E2,5.1923866E1,6.923874E0,3.0652565E1,8.552799E0,1.7573416E-1,4.363434E0,2.3991776E0,1.2963942E1,5.8775955E1,1.4272839E1,2.2788132E1,2.749588E0,6.998707E0,7.590949E0,1.769237E1,4.1550417E0,1.4595299E0,3.1942743E-1,3.881666E-1,2.3404903E0,0E0,3.577982E0,1.3598061E0,6.302944E0,1.2079329E1,9.888299E0,3.1737991E1,9.126057E0,6.300057E1,1.757248E1,8.271395E0,1.502552E0,1.0521355E0,1.9412053E0,4.309186E0,7.4495525E0,7.764779E0,4.3595085E0,1.9084423E0,1.9340105E0,2.4145217E0,3.969183E0,3.7403107E-1,3.0316323E-1,1.0324907E-1,1.4633948E-1,0E0,2.2398424E0,0E0,7.5671196E0,1.8957382E-1,1.1028862E0,9.283811E-2,0E0,0E0,0E0,0E0,0E0,0E0,0E0,0E0,0E0,0E0,0E0,0E0,0E0,0E0,0E0,0E0,0E0,0E0,0E0,0E0,0E0,0E0,0E0,0E0,0E0,0E0,0E0,0E0,0E0,0E0,0E0,0E0,0E0,0E0,0E0,0E0,0E0,0E0,0E0,0E0,0E0,0E0,0E0,0E0,0E0,0E0,0E0,0E0,0E0,0E0,0E0,0E0,0E0,0E0,0E0,0E0],"parents":[2147483647,0,0,1,1,2,2,3,3,4,4,5,5,6,6,7,7,8,8,9,9,10,10,11,11,12,12,13,13,14,14,15,15,16,16,17,17,18,18,19,19,20,20,21,21,22,22,23,23,24,24,25,25,26,26,27,27,29,29,30,30,31,31,32,32,33,33,34,34,35,35,36,36,37,37,38,38,39,39,40,40,41,41,42,42,43,43,44,44,45,45,46,46,47,47,48,48,49,49,50,50,51,51,52,52,53,53,55,55,57,57,58,58,59,59,60,60],"right_children":[2,4,6,8,10,12,14,16,18,20,22,24,26,28,30,32,34,36,38,40,42,44,46,48,50,52,54,56,-1,58,60,62,64,66,68,70,72,74,76,78,80,82,84,86,88,90,92,94,96,98,100,102,104,106,-1,108,-1,110,112,114,116,-1,-1,-1,-1,-1,-1,-1,-1,-1,-1,-1,-1,-1,-1,-1,-1,-1,-1,-1,-1,-1,-1,-1,-1,-1,-1,-1,-1,-1,-1,-1,-1,-1,-1,-1,-1,-1,-1,-1,-1,-1,-1,-1,-1,-1,-1,-1,-1,-1,-1,-1,-1,-1,-1,-1,-1],"split_conditions":[1.026468E2,2.1248028E0,1.3125613E2,1.3750873E0,4.7654194E-1,9.0640854E1,6.245026E1,9.850933E-1,4.3112804E1,1.3748817E2,2.3505438E1,1.0516615E2,6.097431E1,5.789416E0,2.1152985E2,2.2836809E-1,1.9601746E0,4.739508E0,6.755676E1,2.3505438E1,1.1826659E1,1.1610559E2,5.11432E-1,6.5997195E-1,3.8228342E-1,1.02771545E2,1.6834756E2,3.3800497E0,4.198302E-2,1.3748817E2,1.54621E2,4.5964597E-3,4.6450207E-1,1.2072746E0,7.6005187E0,4.525751E0,4.8797665E0,5.077234E-1,1.0668192E2,1.095873E0,3.733152E-1,4.295778E0,5.624748E1,3.2101948E-2,5.696989E-1,5.0317484E-1,3.930487E1,1.0358045E2,1.1301383E2,1.054607E2,5.10105E1,2.3516E0,8.449174E0,1.1081482E2,-1.0975663E-2,2.3911893E0,1.04476875E-2,1.3159982E2,1.54621E2,1.3159982E2,6.097431E1,-1.0017542E-2,8.530221E-3,-8.302322E-3,1.9915018E-3,-4.2962474E-3,1.3250293E-2,3.302289E-2,-1.4944362E-2,-4.4248346E-3,-1.2674178E-2,2.4449045E-2,-3.3429414E-3,2.6205426E-2,4.977747E-3,-5.323472E-3,1.3001594E-2,-2.607483E-3,-6.8981457E-3,-8.841779E-3,-1.3126661E-2,9.332991E-3,-1.384023E-2,-1.0886983E-2,3.460818E-2,4.7485586E-2,-4.186399E-3,1.4706929E-2,-5.120204E-3,8.7282155E-3,1.7586686E-2,9.196966E-3,-5.349131E-3,-1.8663133E-2,1.7671844E-2,6.5038996E-3,-1.2662147E-2,2.389805E-2,-2.1676288E-3,2.5705812E-2,3.566903E-2,1.8689513E-2,-2.4821497E-3,-1.3849561E-2,-7.0497007E-3,1.1451515E-2,-2.51997E-4,2.0633984E-2,5.0059717E-2,8.167374E-3,4.258199E-2,-3.5782202E-4,6.148815E-3,2.0263007E-2,3.432111E-2,1.0261214E-2,-9.91265E-4],"split_indices":[1,4,1,2,3,4,4,2,2,4,1,2,2,2,1,1,1,1,2,1,2,4,3,2,4,4,2,2,0,4,4,2,2,2,1,2,1,3,2,1,3,1,1,2,3,3,4,1,1,1,4,2,2,4,0,2,0,4,4,4,2,0,0,0,0,0,0,0,0,0,0,0,0,0,0,0,0,0,0,0,0,0,0,0,0,0,0,0,0,0,0,0,0,0,0,0,0,0,0,0,0,0,0,0,0,0,0,0,0,0,0,0,0,0,0,0,0],"split_type":[0,0,0,0,0,0,0,0,0,0,0,0,0,0,0,0,0,0,0,0,0,0,0,0,0,0,0,0,0,0,0,0,0,0,0,0,0,0,0,0,0,0,0,0,0,0,0,0,0,0,0,0,0,0,0,0,0,0,0,0,0,0,0,0,0,0,0,0,0,0,0,0,0,0,0,0,0,0,0,0,0,0,0,0,0,0,0,0,0,0,0,0,0,0,0,0,0,0,0,0,0,0,0,0,0,0,0,0,0,0,0,0,0,0,0,0,0],"sum_hessian":[1.5465E4,1.4567E4,8.98E2,7.329E3,7.238E3,5.41E2,3.57E2,2.623E3,4.706E3,3.466E3,3.772E3,4.54E2,8.7E1,1.61E2,1.96E2,1.658E3,9.65E2,3.995E3,7.11E2,3.397E3,6.9E1,2.831E3,9.41E2,2.62E2,1.92E2,5.3E1,3.4E1,5.3E1,1.08E2,1.15E2,8.1E1,3.58E2,1.3E3,3.2E2,6.45E2,1.765E3,2.23E3,4.28E2,2.83E2,2.397E3,1E3,3.8E1,3.1E1,2.632E3,1.99E2,6.8E2,2.61E2,1.21E2,1.41E2,9.1E1,1.01E2,1.1E1,4.2E1,2.6E1,8E0,3.1E1,2.2E1,7E1,4.5E1,6.9E1,1.2E1,5.3E1,3.05E2,8.79E2,4.21E2,1.67E2,1.53E2,6.09E2,3.6E1,1.315E3,4.5E2,2.26E2,2.004E3,2.77E2,1.51E2,1.94E2,8.9E1,2.27E2,2.17E3,8.2E2,1.8E2,1.3E1,2.5E1,6E0,2.5E1,6E0,2.626E3,1.12E2,8.7E1,4.83E2,1.97E2,2.4E1,2.37E2,3E0,1.18E2,1.23E2,1.8E1,7.3E1,1.8E1,8E1,2.1E1,1E0,1E1,8E0,3.4E1,2E0,2.4E1,2E1,1.1E1,4.6E1,2.4E1,2.7E1,1.8E1,3.5E1,3.4E1,1E1,2E0],"tree_param":{"num_deleted":"0","num_feature":"6","num_nodes":"117","size_leaf_vector":"1"}},{"base_weights":[-2.9326351E-5,-7.5864166E-2,1.2459173E-1,-8.510972E-2,5.149895E-1,9.570834E-2,3.7574703E-1,-8.731066E-2,3.984142E-1,5.3690696E-1,1.1682987E-1,2.5105947E-1,5.053345E-2,1.747607E-1,4.7985923E-1,-1.1873006E-1,-6.2285606E-2,3.233257E-1,3.2307837E-2,6.670126E-1,4.8545685E-1,6.199253E-3,1.4897109E-3,6.433975E-2,5.280554E-1,-4.7143135E-2,9.1194525E-2,3.4946588E-1,4.0029954E-2,3.7377208E-1,6.323854E-1,5.4624323E-3,-1.3405485E-1,3.6033444E-2,-8.8544436E-2,4.3583184E-1,1.4426206E-1,5.299855E-1,8.5427237E-1,5.7266164E-1,2.8907466E-1,-1.1209007E-1,1.6933554E-1,6.480619E-1,2.2725084E-1,-8.8682406E-2,1.5851447E-1,7.9095316E-1,6.7188665E-2,2.7992183E-1,3.6992412E-2,1.0763986E-1,-2.2926049E-1,1.8490191E-1,5.371913E-1,7.542835E-1,3.112426E-1,-2.699729E-3,8.789668E-3,-6.9578686E-3,5.4315333E-3,-3.911087E-3,1.4084667E-2,-7.955009E-3,-3.1269062E-3,2.363061E-2,2.880621E-3,2.2362554E-2,-8.837986E-3,3.391623E-2,1.8778859E-2,5.2277744E-2,1.5042639E-2,1.3530432E-2,2.9819012E-2,2.0094668E-2,8.9427475E-3,-1.064688E-2,4.7765016E-3,1.668342E-2,-7.292284E-4,3.360076E-2,-1.5244685E-2,-7.5437385E-4,1.6366987E-2,-6.039384E-3,1.5901316E-2,1.550734E-2,-1.5280907E-2,4.8883025E-2,-1.34998355E-2,5.0010025E-3,-8.207902E-3,1.5494901E-2,-1.0553598E-3,-8.016866E-4,9.89379E-3,-5.3503946E-3,-1.5447018E-2,2.2136645E-2,-4.2833304E-3,3.36781E-2,1.9942505E-2,7.005096E-4,3.8690638E-2,1.9428177E-2,-1.3449534E-2],"categories":[],"categories_nodes":[],"categories_segments":[],"categories_sizes":[],"default_left":[0,0,0,0,0,0,0,0,0,0,0,0,0,0,0,0,0,0,0,0,0,0,0,0,0,0,0,0,0,0,0,0,0,0,0,0,0,0,0,0,0,0,0,0,0,0,0,0,0,0,0,0,0,0,0,0,0,0,0,0,0,0,0,0,0,0,0,0,0,0,0,0,0,0,0,0,0,0,0,0,0,0,0,0,0,0,0,0,0,0,0,0,0,0,0,0,0,0,0,0,0,0,0,0,0,0,0],"id":11,"left_children":[1,3,5,7,9,11,13,15,17,19,21,23,25,27,29,31,33,35,-1,37,39,-1,-1,41,43,45,47,49,51,53,55,57,59,61,63,65,67,69,71,73,75,77,79,81,83,85,87,89,91,93,-1,95,97,99,101,103,105,-1,-1,-1,-1,-1,-1,-1,-1,-1,-1,-1,-1,-1,-1,-1,-1,-1,-1,-1,-1,-1,-1,-1,-1,-1,-1,-1,-1,-1,-1,-1,-1,-1,-1,-1,-1,-1,-1,-1,-1,-1,-1,-1,-1,-1,-1,-1,-1,-1,-1],"loss_changes":[1.4588919E2,5.2470024E1,4.2328667E1,1.009153E1,1.2288246E0,3.6754467E1,1.2513062E1,7.3898544E0,5.909929E-1,6.133461E-1,1.910761E-3,6.0996346E1,1.6129139E1,4.85841E0,6.1713486E0,7.9371758E0,1.3528942E1,6.422274E-1,0E0,4.966545E-1,1.6155071E0,0E0,0E0,1.3097199E1,1.6999512E1,1.0214241E1,4.8107613E1,2.23629E0,2.1730683E0,7.1848145E0,6.067848E0,4.6579537E0,4.6117096E0,3.1037079E1,7.577339E0,2.6490355E-1,1.5380471E0,2.9495192E-1,1.1674767E0,3.472767E-1,3.5090423E-1,5.5479665E0,1.3394149E1,7.943039E0,3.3279233E0,1.301756E1,1.4240666E1,1.9082249E1,2.1078552E1,7.103896E-1,0E0,1.0633539E0,2.0072663E-1,7.781393E0,2.1084251E0,1.6661682E0,2.168271E0,0E0,0E0,0E0,0E0,0E0,0E0,0E0,0E0,0E0,0E0,0E0,0E0,0E0,0E0,0E0,0E0,0E0,0E0,0E0,0E0,0E0,0E0,0E0,0E0,0E0,0E0,0E0,0E0,0E0,0E0,0E0,0E0,0E0,0E0,0E0,0E0,0E0,0E0,0E0,0E0,0E0,0E0,0E0,0E0,0E0,0E0,0E0,0E0,0E0,0E0],"parents":[2147483647,0,0,1,1,2,2,3,3,4,4,5,5,6,6,7,7,8,8,9,9,10,10,11,11,12,12,13,13,14,14,15,15,16,16,17,17,19,19,20,20,23,23,24,24,25,25,26,26,27,27,28,28,29,29,30,30,31,31,32,32,33,33,34,34,35,35,36,36,37,37,38,38,39,39,40,40,41,41,42,42,43,43,44,44,45,45,46,46,47,47,48,48,49,49,51,51,52,52,53,53,54,54,55,55,56,56],"right_children":[2,4,6,8,10,12,14,16,18,20,22,24,26,28,30,32,34,36,-1,38,40,-1,-1,42,44,46,48,50,52,54,56,58,60,62,64,66,68,70,72,74,76,78,80,82,84,86,88,90,92,94,-1,96,98,100,102,104,106,-1,-1,-1,-1,-1,-1,-1,-1,-1,-1,-1,-1,-1,-1,-1,-1,-1,-1,-1,-1,-1,-1,-1,-1,-1,-1,-1,-1,-1,-1,-1,-1,-1,-1,-1,-1,-1,-1,-1,-1,-1,-1,-1,-1,-1,-1,-1,-1,-1,-1],"split_conditions":[2.23E2,1.6345709E2,1.026468E2,6.755676E1,2.8869274E-1,1.3750873E0,1.0516615E2,6.3E1,3.683296E1,3.6130636E0,9.9191505E1,1.0796232E0,4.739508E0,4.98E2,1.3125613E2,3.7696478E-1,1.3137869E0,2.1140081E1,3.2307837E-2,2.3911893E0,2.6144806E2,6.199253E-3,1.4897109E-3,3.1065726E-1,3.479425E-1,8.98E2,4.792843E0,3.733152E-1,9.78E2,7.28E2,1.3903181E2,2.1569376E-1,1.0358045E2,9.850933E-1,2.995519E0,2.18E2,1.63E2,1.8E1,5.8E1,8.3E1,8.3E1,4.6417785E0,4.6183112E-1,1.2903808E0,1.2072746E0,1.0668192E2,4.525751E0,1.428E3,6.755676E1,2.1152985E2,3.6992412E-2,2.1394336E0,1.038E3,1.0545086E2,1.428E3,3.38E2,3.73E2,-2.699729E-3,8.789668E-3,-6.9578686E-3,5.4315333E-3,-3.911087E-3,1.4084667E-2,-7.955009E-3,-3.1269062E-3,2.363061E-2,2.880621E-3,2.2362554E-2,-8.837986E-3,3.391623E-2,1.8778859E-2,5.2277744E-2,1.5042639E-2,1.3530432E-2,2.9819012E-2,2.0094668E-2,8.9427475E-3,-1.064688E-2,4.7765016E-3,1.668342E-2,-7.292284E-4,3.360076E-2,-1.5244685E-2,-7.5437385E-4,1.6366987E-2,-6.039384E-3,1.5901316E-2,1.550734E-2,-1.5280907E-2,4.8883025E-2,-1.34998355E-2,5.0010025E-3,-8.207902E-3,1.5494901E-2,-1.0553598E-3,-8.016866E-4,9.89379E-3,-5.3503946E-3,-1.5447018E-2,2.2136645E-2,-4.2833304E-3,3.36781E-2,1.9942505E-2,7.005096E-4,3.8690638E-2,1.9428177E-2,-1.3449534E-2],"split_indices":[0,1,1,2,3,2,2,0,1,2,2,2,1,0,1,1,2,1,0,2,1,0,0,3,3,0,1,3,0,0,1,1,1,2,1,0,0,0,0,0,0,1,3,2,2,2,2,0,2,1,0,2,0,2,0,0,0,0,0,0,0,0,0,0,0,0,0,0,0,0,0,0,0,0,0,0,0,0,0,0,0,0,0,0,0,0,0,0,0,0,0,0,0,0,0,0,0,0,0,0,0,0,0,0,0,0,0],"split_type":[0,0,0,0,0,0,0,0,0,0,0,0,0,0,0,0,0,0,0,0,0,0,0,0,0,0,0,0,0,0,0,0,0,0,0,0,0,0,0,0,0,0,0,0,0,0,0,0,0,0,0,0,0,0,0,0,0,0,0,0,0,0,0,0,0,0,0,0,0,0,0,0,0,0,0,0,0,0,0,0,0,0,0,0,0,0,0,0,0,0,0,0,0,0,0,0,0,0,0,0,0,0,0,0,0,0,0],"sum_hessian":[1.5435E4,9.596E3,5.839E3,9.449E3,1.47E2,5.238E3,6.01E2,9.407E3,4.2E1,1.39E2,8E0,1.179E3,4.059E3,2.06E2,3.95E2,4.169E3,5.238E3,3.4E1,8E0,3.6E1,1.03E2,7E0,1E0,7.05E2,4.74E2,1.193E3,2.866E3,8.9E1,1.17E2,2.35E2,1.6E2,4.58E2,3.711E3,1.104E3,4.134E3,2E1,1.4E1,2.3E1,1.3E1,7E1,3.3E1,2.63E2,4.42E2,3.38E2,1.36E2,9.93E2,2E2,9.4E1,2.772E3,7.7E1,1.2E1,9.4E1,2.3E1,1.1E2,1.25E2,1.15E2,4.5E1,3.4E2,1.18E2,3.635E3,7.6E1,7.54E2,3.5E2,1.112E3,3.022E3,1.8E1,2E0,7E0,7E0,1E1,1.3E1,9E0,4E0,6E0,6.4E1,1.5E1,1.8E1,1.77E2,8.6E1,2.33E2,2.09E2,3.3E2,8E0,4E1,9.6E1,9.21E2,7.2E1,1.51E2,4.9E1,8E1,1.4E1,2.428E3,3.44E2,7E1,7E0,4E1,5.4E1,1E1,1.3E1,5.6E1,5.4E1,6.1E1,6.4E1,3E0,1.12E2,4E1,5E0],"tree_param":{"num_deleted":"0","num_feature":"6","num_nodes":"107","size_leaf_vector":"1"}},{"base_weights":[-3.144179E-3,-6.5423734E-2,1.288536E-1,-7.376881E-2,4.7399157E-1,1.11935675E-1,6.315235E-1,-4.117791E-3,-9.6197225E-2,5.276767E-1,1.1081388E-1,-5.8041148E-2,1.4445856E-1,6.843915E-1,-8.635863E-2,-8.476848E-2,7.9980604E-2,-1.0790401E-1,9.4718955E-2,8.0004776E-1,4.6729565E-1,6.7306734E-3,3.9881547E-3,6.412799E-1,-7.7415586E-2,4.1597715E-1,9.6520096E-2,7.3336816E-1,1.9144496E-1,-2.5920186E-3,-5.611841E-3,9.042867E-2,-1.4266028E-1,1.6111453E-1,-4.1799583E-2,-1.10252716E-1,7.812225E-2,-6.4054266E-2,1.5572041E-1,5.2328933E-2,5.823573E-1,5.436411E-1,-1.3774087E-2,-1.2195515E-2,3.4886744E-2,1.1575395E-2,-1.7203052E-1,1.6767962E-1,6.002915E-1,7.68389E-2,2.882331E-1,7.4681634E-1,-5.812804E-3,2.9092726E-1,3.6189895E-2,-5.611547E-5,3.198795E-2,-8.469432E-3,1.4457472E-3,2.6989167E-4,1.6700989E-2,-5.9155463E-3,6.389115E-3,-5.8616935E-3,-2.692184E-3,1.1140821E-2,-1.0922684E-2,-1.5749304E-2,1.5196201E-2,2.2730438E-2,4.8339027E-3,4.7080102E-3,4.9887985E-2,3.0021358E-2,7.393425E-3,2.9116392E-3,-1.0957032E-3,-1.6968807E-2,1.8787858E-3,-1.2558191E-2,6.0124573E-4,1.2052226E-2,2.8541707E-3,2.2221355E-2,3.6760915E-2,5.393985E-3,-5.913387E-3,9.193606E-3,2.4713065E-2,3.512418E-2,4.9797636E-2,9.589076E-4,2.1180272E-2,2.7178766E-3,4.4873953E-4],"categories":[],"categories_nodes":[],"categories_segments":[],"categories_sizes":[],"default_left":[0,0,0,0,0,0,0,0,0,0,0,0,0,0,0,0,0,0,0,0,0,0,0,0,0,0,0,0,0,0,0,0,0,0,0,0,0,0,0,0,0,0,0,0,0,0,0,0,0,0,0,0,0,0,0,0,0,0,0,0,0,0,0,0,0,0,0,0,0,0,0,0,0,0,0,0,0,0,0,0,0,0,0,0,0,0,0,0,0,0,0,0,0,0,0],"id":12,"left_children":[1,3,5,7,9,11,13,15,17,19,21,23,25,27,29,31,33,35,37,39,41,-1,-1,43,45,47,49,51,53,-1,-1,55,57,59,61,63,65,67,69,-1,71,73,75,-1,-1,77,79,81,83,85,87,89,-1,91,93,-1,-1,-1,-1,-1,-1,-1,-1,-1,-1,-1,-1,-1,-1,-1,-1,-1,-1,-1,-1,-1,-1,-1,-1,-1,-1,-1,-1,-1,-1,-1,-1,-1,-1,-1,-1,-1,-1,-1,-1],"loss_changes":[1.2775911E2,4.756589E1,4.229693E1,1.6244526E1,3.0805817E0,2.665953E1,6.2074814E0,1.7193872E1,1.7590836E1,1.9285889E0,5.520731E-3,1.0550082E1,5.2636345E1,3.5051804E0,4.9008355E-3,1.3137269E1,1.226844E1,3.247078E0,4.41683E0,6.785364E-1,4.3046017E0,0E0,0E0,1.2196264E0,6.358998E0,2.7678566E1,1.2961231E1,1.6521683E0,2.2114837E-1,0E0,0E0,1.6194656E1,4.466999E0,2.005675E1,6.4636617E0,2.8763123E0,4.039566E0,1.1822588E1,5.761937E0,0E0,2.9480247E0,2.1811314E0,1.1240402E-2,0E0,0E0,3.5714443E0,5.3337774E0,2.095849E0,6.9917755E0,1.8920418E1,6.7895374E0,7.914276E-1,0E0,3.1637257E-1,2.9731905E-3,0E0,0E0,0E0,0E0,0E0,0E0,0E0,0E0,0E0,0E0,0E0,0E0,0E0,0E0,0E0,0E0,0E0,0E0,0E0,0E0,0E0,0E0,0E0,0E0,0E0,0E0,0E0,0E0,0E0,0E0,0E0,0E0,0E0,0E0,0E0,0E0,0E0,0E0,0E0,0E0],"parents":[2147483647,0,0,1,1,2,2,3,3,4,4,5,5,6,6,7,7,8,8,9,9,10,10,11,11,12,12,13,13,14,14,15,15,16,16,17,17,18,18,19,19,20,20,23,23,24,24,25,25,26,26,27,27,28,28,31,31,32,32,33,33,34,34,35,35,36,36,37,37,38,38,40,40,41,41,42,42,45,45,46,46,47,47,48,48,49,49,50,50,51,51,53,53,54,54],"right_children":[2,4,6,8,10,12,14,16,18,20,22,24,26,28,30,32,34,36,38,40,42,-1,-1,44,46,48,50,52,54,-1,-1,56,58,60,62,64,66,68,70,-1,72,74,76,-1,-1,78,80,82,84,86,88,90,-1,92,94,-1,-1,-1,-1,-1,-1,-1,-1,-1,-1,-1,-1,-1,-1,-1,-1,-1,-1,-1,-1,-1,-1,-1,-1,-1,-1,-1,-1,-1,-1,-1,-1,-1,-1,-1,-1,-1,-1,-1,-1],"split_conditions":[2.78E2,1.6345709E2,1.3125613E2,3.3529422E0,9.833928E1,1.9939663E0,1.6345709E2,4.6450207E-1,3.8445053E1,2.1152985E2,9.777442E1,5.980738E-2,1.2903808E0,9.833928E1,3.28E2,3.3792984E-1,1.3137869E0,1.0358045E2,2.8160412E1,9.068875E1,1.78E2,6.7306734E-3,3.9881547E-3,5.48E2,4.68E2,1.0065887E0,1.026468E2,1.4197493E2,1.318836E2,-2.5920186E-3,-5.611841E-3,1.53E2,3.8132763E1,1.442432E0,2.2671566E0,1.7353775E1,3.297717E1,9.409635E1,4.817449E1,5.2328933E-2,2.23E2,8.004028E1,1.83E2,-1.2195515E-2,3.4886744E-2,8.006034E-3,1.4773121E0,4.98E2,3.811614E-1,6.755676E1,1.138E3,8.5106415E1,-5.812804E-3,2.93E2,1.3521513E2,-5.611547E-5,3.198795E-2,-8.469432E-3,1.4457472E-3,2.6989167E-4,1.6700989E-2,-5.9155463E-3,6.389115E-3,-5.8616935E-3,-2.692184E-3,1.1140821E-2,-1.0922684E-2,-1.5749304E-2,1.5196201E-2,2.2730438E-2,4.8339027E-3,4.7080102E-3,4.9887985E-2,3.0021358E-2,7.393425E-3,2.9116392E-3,-1.0957032E-3,-1.6968807E-2,1.8787858E-3,-1.2558191E-2,6.0124573E-4,1.2052226E-2,2.8541707E-3,2.2221355E-2,3.6760915E-2,5.393985E-3,-5.913387E-3,9.193606E-3,2.4713065E-2,3.512418E-2,4.9797636E-2,9.589076E-4,2.1180272E-2,2.7178766E-3,4.4873953E-4],"split_indices":[0,1,1,5,5,1,1,2,2,1,2,2,2,5,0,1,2,1,1,5,0,0,0,0,0,2,1,2,2,0,0,0,1,1,2,2,5,5,5,0,0,5,0,0,0,1,1,0,5,2,0,5,0,0,1,0,0,0,0,0,0,0,0,0,0,0,0,0,0,0,0,0,0,0,0,0,0,0,0,0,0,0,0,0,0,0,0,0,0,0,0,0,0,0,0],"split_type":[0,0,0,0,0,0,0,0,0,0,0,0,0,0,0,0,0,0,0,0,0,0,0,0,0,0,0,0,0,0,0,0,0,0,0,0,0,0,0,0,0,0,0,0,0,0,0,0,0,0,0,0,0,0,0,0,0,0,0,0,0,0,0,0,0,0,0,0,0,0,0,0,0,0,0,0,0,0,0,0,0,0,0,0,0,0,0,0,0,0,0,0,0,0,0],"sum_hessian":[1.5539E4,1.0558E4,4.981E3,1.0398E4,1.6E2,4.82E3,1.61E2,2.533E3,7.865E3,1.39E2,2.1E1,7.74E2,4.046E3,1.5E2,1.1E1,1.293E3,1.24E3,7.411E3,4.54E2,2.3E1,1.16E2,1E1,1.1E1,2E1,7.54E2,6.06E2,3.44E3,1.36E2,1.4E1,6E0,5E0,3.21E2,9.72E2,7.44E2,4.96E2,7.319E3,9.2E1,1.26E2,3.28E2,9E0,1.4E1,1E2,1.6E1,1E0,1.9E1,3.89E2,3.65E2,2.59E2,3.47E2,3.121E3,3.19E2,1.34E2,2E0,8E0,6E0,2.76E2,4.5E1,8.41E2,1.31E2,3.92E2,3.52E2,3.42E2,1.54E2,6.512E3,8.07E2,6.2E1,3E1,7.5E1,5.1E1,5.3E1,2.75E2,7E0,7E0,8.7E1,1.3E1,1E0,1.5E1,2.6E1,3.63E2,2.55E2,1.1E2,1.55E2,1.04E2,1.63E2,1.84E2,2.693E3,4.28E2,2.13E2,1.06E2,1.17E2,1.7E1,3E0,5E0,3E0,3E0],"tree_param":{"num_deleted":"0","num_feature":"6","num_nodes":"95","size_leaf_vector":"1"}},{"base_weights":[2.1558194E-3,-6.5461256E-2,1.0911237E-1,-6.867636E-2,3.3147323E-1,1.3041916E-1,-8.518281E-2,-2.5563436E-2,-8.364377E-2,-1.9497529E-1,3.6299062E-1,9.398454E-2,3.077796E-1,5.68817E-1,-1.07626356E-1,-9.79711E-2,5.4138016E-2,-9.4989926E-2,-2.3830459E-2,-3.5743553E-3,-1.2673586E-2,4.5048077E-2,3.1874648E-1,2.2804156E-1,4.4369992E-2,3.3137098E-1,-2.24233E-1,1.0045537E-2,6.780584E-1,-1.9306104E-1,5.9018865E-2,-7.492446E-2,-3.0162337E-1,1.8312764E-1,-4.4147354E-2,-9.123064E-2,-2.2884697E-1,4.546437E-2,-2.2991674E-1,7.123343E-2,4.4095445E-1,6.973687E-2,4.8886982E-1,-3.6133908E-2,1.230155E-1,2.4344225E-1,4.7675124E-1,-1.9719638E-2,-3.111773E-1,3.570338E-2,4.3482305E-3,-2.0681182E-1,2.9076672E-1,3.6977065E-1,-6.0913768E-2,-4.960314E-3,6.0147396E-3,-5.9033255E-3,-1.7429698E-2,4.9064895E-3,4.0523816E-2,-3.6431958E-3,1.4026458E-2,-4.788741E-3,4.2048213E-3,-1.736476E-2,-9.838614E-3,-2.6548854E-3,1.4087528E-2,-1.2225654E-2,2.4234993E-2,1.2296705E-2,-7.879431E-3,6.2491517E-3,2.5721723E-2,-3.3089815E-4,1.1108599E-2,2.8476346E-2,3.9617736E-3,1.52012175E-2,-3.1423196E-3,2.5229279E-2,2.8842683E-3,1.8711051E-2,5.9780865E-3,2.9341161E-2,1.2049096E-2,2.0135641E-4,-2.4047694E-3,-1.0216701E-2,-1.841458E-2,-1.3897178E-2,-5.9179883E-3,-9.273657E-3,2.0860298E-2,-1.0742903E-2,1.92288E-2,2.2507047E-3,-1.3252049E-2],"categories":[],"categories_nodes":[],"categories_segments":[],"categories_sizes":[],"default_left":[0,0,0,0,0,0,0,0,0,0,0,0,0,0,0,0,0,0,0,0,0,0,0,0,0,0,0,0,0,0,0,0,0,0,0,0,0,0,0,0,0,0,0,0,0,0,0,0,0,0,0,0,0,0,0,0,0,0,0,0,0,0,0,0,0,0,0,0,0,0,0,0,0,0,0,0,0,0,0,0,0,0,0,0,0,0,0,0,0,0,0,0,0,0,0,0,0,0,0],"id":13,"left_children":[1,3,5,7,9,11,13,15,17,19,21,23,25,27,29,31,33,35,37,-1,-1,-1,39,41,43,45,47,-1,49,51,53,55,57,59,61,63,65,67,69,71,73,75,77,79,81,83,85,87,89,-1,-1,91,93,95,97,-1,-1,-1,-1,-1,-1,-1,-1,-1,-1,-1,-1,-1,-1,-1,-1,-1,-1,-1,-1,-1,-1,-1,-1,-1,-1,-1,-1,-1,-1,-1,-1,-1,-1,-1,-1,-1,-1,-1,-1,-1,-1,-1,-1],"loss_changes":[1.1287112E2,1.2225662E1,2.5036247E1,6.119072E0,1.3483801E0,3.5176384E1,8.838708E0,1.412116E1,4.7761154E0,1.799813E-2,1.4503717E0,3.0059856E1,1.1721542E1,6.675825E-1,8.254779E0,5.994467E0,1.4777713E1,2.9571037E0,1.6061975E1,0E0,0E0,0E0,2.055705E0,5.038141E1,2.0903967E1,1.1248116E1,7.051146E-1,0E0,2.5717402E-1,2.6082382E0,7.364572E0,5.477474E0,1.0796719E0,2.6795408E1,6.1926584E0,4.595562E0,5.433321E-1,1.9624178E1,3.070426E0,9.98165E-1,1.0037127E0,8.85887E0,1.5186272E1,1.4848228E1,4.1600693E1,8.962986E0,8.526413E0,8.953506E-3,9.560943E-2,0E0,0E0,2.3139238E0,7.3974955E-1,5.586877E-1,3.1039848E0,0E0,0E0,0E0,0E0,0E0,0E0,0E0,0E0,0E0,0E0,0E0,0E0,0E0,0E0,0E0,0E0,0E0,0E0,0E0,0E0,0E0,0E0,0E0,0E0,0E0,0E0,0E0,0E0,0E0,0E0,0E0,0E0,0E0,0E0,0E0,0E0,0E0,0E0,0E0,0E0,0E0,0E0,0E0,0E0],"parents":[2147483647,0,0,1,1,2,2,3,3,4,4,5,5,6,6,7,7,8,8,9,9,10,10,11,11,12,12,13,13,14,14,15,15,16,16,17,17,18,18,22,22,23,23,24,24,25,25,26,26,28,28,29,29,30,30,31,31,32,32,33,33,34,34,35,35,36,36,37,37,38,38,39,39,40,40,41,41,42,42,43,43,44,44,45,45,46,46,47,47,48,48,51,51,52,52,53,53,54,54],"right_children":[2,4,6,8,10,12,14,16,18,20,22,24,26,28,30,32,34,36,38,-1,-1,-1,40,42,44,46,48,-1,50,52,54,56,58,60,62,64,66,68,70,72,74,76,78,80,82,84,86,88,90,-1,-1,92,94,96,98,-1,-1,-1,-1,-1,-1,-1,-1,-1,-1,-1,-1,-1,-1,-1,-1,-1,-1,-1,-1,-1,-1,-1,-1,-1,-1,-1,-1,-1,-1,-1,-1,-1,-1,-1,-1,-1,-1,-1,-1,-1,-1,-1,-1],"split_conditions":[2.18E2,6.097431E1,7.763712E-1,3.9275038E0,7.576237E1,2.6227337E1,6.9036454E-1,4.6450207E-1,1.4143681E1,6.735737E-1,9.068875E1,1.3750873E0,1.6834756E2,3.23E2,1.063552E2,3.5278663E-1,3.4595415E-1,9.971699E-1,5.11432E-1,-3.5743553E-3,-1.2673586E-2,4.5048077E-2,9.833928E1,1.1007519E0,5.001279E-1,1.0516615E2,4.13E2,1.0045537E-2,4.33E2,9.833928E1,4.18E2,4.4645038E-1,1.0430878E-1,3.3098003E-1,9.0130365E-1,9.465528E-1,3.9961965E0,4.9951765E-1,1.1173491E2,4.9999142E-1,3.6818016E-1,4.247118E-1,4.6513718E-1,2.1028794E-1,5.0049675E-1,5.137619E1,7.576237E1,3.83E2,8.2218094E1,3.570338E-2,4.3482305E-3,3.93E2,9.777442E1,8.5853887E-1,1.318836E2,-4.960314E-3,6.0147396E-3,-5.9033255E-3,-1.7429698E-2,4.9064895E-3,4.0523816E-2,-3.6431958E-3,1.4026458E-2,-4.788741E-3,4.2048213E-3,-1.736476E-2,-9.838614E-3,-2.6548854E-3,1.4087528E-2,-1.2225654E-2,2.4234993E-2,1.2296705E-2,-7.879431E-3,6.2491517E-3,2.5721723E-2,-3.3089815E-4,1.1108599E-2,2.8476346E-2,3.9617736E-3,1.52012175E-2,-3.1423196E-3,2.5229279E-2,2.8842683E-3,1.8711051E-2,5.9780865E-3,2.9341161E-2,1.2049096E-2,2.0135641E-4,-2.4047694E-3,-1.0216701E-2,-1.841458E-2,-1.3897178E-2,-5.9179883E-3,-9.273657E-3,2.0860298E-2,-1.0742903E-2,1.92288E-2,2.2507047E-3,-1.3252049E-2],"split_indices":[0,2,3,5,5,5,2,2,2,3,5,2,2,0,2,2,3,3,3,0,0,0,5,2,3,2,0,0,0,5,0,3,3,3,3,3,2,3,5,3,3,5,3,3,3,2,5,0,5,0,0,0,2,3,2,0,0,0,0,0,0,0,0,0,0,0,0,0,0,0,0,0,0,0,0,0,0,0,0,0,0,0,0,0,0,0,0,0,0,0,0,0,0,0,0,0,0,0,0],"split_type":[0,0,0,0,0,0,0,0,0,0,0,0,0,0,0,0,0,0,0,0,0,0,0,0,0,0,0,0,0,0,0,0,0,0,0,0,0,0,0,0,0,0,0,0,0,0,0,0,0,0,0,0,0,0,0,0,0,0,0,0,0,0,0,0,0,0,0,0,0,0,0,0,0,0,0,0,0,0,0,0,0,0,0,0,0,0,0,0,0,0,0,0,0,0,0,0,0,0,0],"sum_hessian":[1.5605E4,9.561E3,6.044E3,9.485E3,7.6E1,5.447E3,5.97E2,2.445E3,7.04E3,4E0,7.2E1,4.52E3,9.27E2,1.9E1,5.78E2,1.281E3,1.164E3,5.917E3,1.123E3,2E0,2E0,4E0,6.8E1,1.22E3,3.3E3,8.88E2,3.9E1,5E0,1.4E1,3.82E2,1.96E2,1.152E3,1.29E2,5.03E2,6.61E2,5.757E3,1.6E2,8.41E2,2.82E2,2.3E1,4.5E1,7.6E2,4.6E2,1.631E3,1.669E3,5.55E2,3.33E2,1.2E1,2.7E1,1.3E1,1E0,3.72E2,1E1,5.4E1,1.42E2,1.025E3,1.27E2,2.7E1,1.02E2,4.44E2,5.9E1,6.08E2,5.3E1,5.612E3,1.45E2,3.2E1,1.28E2,5.94E2,2.47E2,2.77E2,5E0,1.3E1,1E1,9E0,3.6E1,5.07E2,2.53E2,3.84E2,7.6E1,1.18E2,1.513E3,2.43E2,1.426E3,2.69E2,2.86E2,2.26E2,1.07E2,7E0,5E0,1.1E1,1.6E1,2.05E2,1.67E2,2E0,8E0,1E0,5.3E1,9.4E1,4.8E1],"tree_param":{"num_deleted":"0","num_feature":"6","num_nodes":"99","size_leaf_vector":"1"}},{"base_weights":[1.0189161E-3,-6.277326E-2,9.8929174E-2,-7.458389E-2,1.2324023E-1,1.2087298E-1,-9.41661E-2,-3.8200285E-2,-1.004582E-1,1.0905046E-2,2.4296927E-1,9.93331E-2,3.591055E-1,4.555331E-1,-1.1118932E-1,6.3600442E-3,-1.2475936E-1,-1.1592803E-1,-5.726174E-2,3.8151562E-2,-2.3656872E-1,1.5409061E-1,3.333511E-1,2.2088836E-1,5.9406664E-2,4.5772135E-1,3.4558391E-3,2.6214755E-1,3.206392E-2,-1.9711141E-1,4.572219E-3,-1.184214E-1,6.0782235E-2,-7.754774E-2,-2.0402195E-1,-1.3688304E-1,-7.94221E-2,6.905844E-1,-6.384733E-2,-2.3900768E-2,2.5788653E-1,-3.4792003E-1,-2.27284E-2,3.517936E-1,-1.4521547E-1,5.843829E-1,9.5488004E-2,2.0734869E-2,4.1594186E-1,1.6318237E-2,1.7262155E-1,6.019338E-1,3.043008E-1,1.5652129E-1,-2.7300832E-1,1.01688765E-2,2.1246195E-2,-2.5230387E-1,-8.968329E-2,1.4359862E-1,-2.0202482E-1,-3.1132584E-3,-8.630729E-3,2.6097385E-2,-6.930093E-5,-4.3209963E-3,3.4851708E-2,-1.6664803E-2,-7.1103806E-3,-5.7507744E-3,-9.16067E-3,3.233094E-2,-4.0991995E-3,-1.2769938E-3,6.0287517E-2,-2.2176658E-3,-1.0154578E-2,-4.5498726E-3,8.098232E-3,2.2892525E-2,-1.2189941E-3,-2.1748014E-2,-1.1304389E-2,2.5745187E-2,-9.970686E-3,-3.8745576E-3,2.1574322E-2,-9.7796E-3,5.303793E-3,3.087141E-2,7.826638E-3,-6.104533E-3,1.2618147E-2,7.1718036E-3,-4.8297914E-3,2.5616178E-2,-2.3045293E-3,1.3867606E-3,-1.6916437E-2,1.4363388E-2,-6.1889132E-3,1.9438336E-2,3.429249E-2,-3.2418042E-3,1.7890153E-2,1.647819E-2,8.331531E-4,-1.4073672E-2,5.817652E-4,6.052929E-4,-1.48328645E-2,4.64527E-3,-1.0634972E-2,-1.6420363E-2,1.20263E-2,-4.089836E-3,-1.3449653E-2],"categories":[],"categories_nodes":[],"categories_segments":[],"categories_sizes":[],"default_left":[0,0,0,0,0,0,0,0,0,0,0,0,0,0,0,0,0,0,0,0,0,0,0,0,0,0,0,0,0,0,0,0,0,0,0,0,0,0,0,0,0,0,0,0,0,0,0,0,0,0,0,0,0,0,0,0,0,0,0,0,0,0,0,0,0,0,0,0,0,0,0,0,0,0,0,0,0,0,0,0,0,0,0,0,0,0,0,0,0,0,0,0,0,0,0,0,0,0,0,0,0,0,0,0,0,0,0,0,0,0,0,0,0,0,0,0,0],"id":14,"left_children":[1,3,5,7,9,11,13,15,17,19,21,23,25,27,29,31,33,35,37,39,41,43,45,47,49,51,53,55,-1,57,59,61,63,65,67,69,71,73,75,77,79,81,83,85,87,89,91,93,95,97,99,101,103,105,107,-1,-1,109,111,113,115,-1,-1,-1,-1,-1,-1,-1,-1,-1,-1,-1,-1,-1,-1,-1,-1,-1,-1,-1,-1,-1,-1,-1,-1,-1,-1,-1,-1,-1,-1,-1,-1,-1,-1,-1,-1,-1,-1,-1,-1,-1,-1,-1,-1,-1,-1,-1,-1,-1,-1,-1,-1,-1,-1,-1,-1],"loss_changes":[9.703641E1,2.0675766E1,2.598146E1,8.3237915E0,7.5561285E0,2.8208107E1,5.9085402E0,1.418721E1,3.447506E0,1.9711797E0,2.1336136E0,2.4491032E1,1.59915695E1,5.143788E-1,6.048357E0,1.6502245E1,4.6618233E0,2.899887E0,6.7667303E0,3.5921865E0,6.826229E-1,8.276229E0,7.9454985E0,4.8714085E1,1.8544292E1,7.7155075E0,4.274442E0,1.8810153E-2,0E0,2.046671E0,7.496845E0,2.235197E0,4.851011E1,5.4549417E0,3.676405E0,2.4266548E0,2.6384668E0,4.457869E0,3.6663299E0,2.5837545E0,3.2848628E0,1.0314274E-1,1.1475877E0,2.907154E0,7.2966206E-1,8.2234955E-1,2.4200957E0,8.896568E0,2.8167496E1,1.1164365E1,3.564776E1,3.006897E0,3.479391E0,1.5676006E0,9.001875E-2,0E0,0E0,2.7009096E0,2.7151237E0,7.216037E0,8.234005E-1,0E0,0E0,0E0,0E0,0E0,0E0,0E0,0E0,0E0,0E0,0E0,0E0,0E0,0E0,0E0,0E0,0E0,0E0,0E0,0E0,0E0,0E0,0E0,0E0,0E0,0E0,0E0,0E0,0E0,0E0,0E0,0E0,0E0,0E0,0E0,0E0,0E0,0E0,0E0,0E0,0E0,0E0,0E0,0E0,0E0,0E0,0E0,0E0,0E0,0E0,0E0,0E0,0E0,0E0,0E0,0E0],"parents":[2147483647,0,0,1,1,2,2,3,3,4,4,5,5,6,6,7,7,8,8,9,9,10,10,11,11,12,12,13,13,14,14,15,15,16,16,17,17,18,18,19,19,20,20,21,21,22,22,23,23,24,24,25,25,26,26,27,27,29,29,30,30,31,31,32,32,33,33,34,34,35,35,36,36,37,37,38,38,39,39,40,40,41,41,42,42,43,43,44,44,45,45,46,46,47,47,48,48,49,49,50,50,51,51,52,52,53,53,54,54,57,57,58,58,59,59,60,60],"right_children":[2,4,6,8,10,12,14,16,18,20,22,24,26,28,30,32,34,36,38,40,42,44,46,48,50,52,54,56,-1,58,60,62,64,66,68,70,72,74,76,78,80,82,84,86,88,90,92,94,96,98,100,102,104,106,108,-1,-1,110,112,114,116,-1,-1,-1,-1,-1,-1,-1,-1,-1,-1,-1,-1,-1,-1,-1,-1,-1,-1,-1,-1,-1,-1,-1,-1,-1,-1,-1,-1,-1,-1,-1,-1,-1,-1,-1,-1,-1,-1,-1,-1,-1,-1,-1,-1,-1,-1,-1,-1,-1,-1,-1,-1,-1,-1,-1,-1],"split_conditions":[2.13E2,1.1445031E2,7.763712E-1,1.8735826E0,1.03E2,1.0516615E2,6.9036454E-1,2.8505027E0,9.8E1,5.696989E-1,4.877905E-1,1.3750873E0,1.1081482E2,9.659022E-1,1.0545086E2,1.154867E-1,5.0420016E-1,4.7224277E-1,3.2101948E-2,4.9887255E-1,1.3159982E2,2.7771485E-1,5.1309365E-1,9.850933E-1,3.9243065E1,5.774035E-1,3.98E2,3.4076576E1,3.206392E-2,3.98E2,6.28E2,3.8E1,1.6958497E-1,4.1984894E1,5.1797075E0,2.8192702E-1,2.4029918E-2,1.0430878E-1,6.735737E-1,1.3748817E2,5.11432E-1,6.984915E-1,6.8573546E-1,1.4837346E1,5.602336E1,1.467457E2,5.602336E1,3.98E2,1.0590789E0,1.738E3,9.23E2,1.063552E2,5.18E2,1.3748817E2,6.28E2,1.01688765E-2,2.1246195E-2,3.080816E0,6.43E2,9.465528E-1,7.28E2,-3.1132584E-3,-8.630729E-3,2.6097385E-2,-6.930093E-5,-4.3209963E-3,3.4851708E-2,-1.6664803E-2,-7.1103806E-3,-5.7507744E-3,-9.16067E-3,3.233094E-2,-4.0991995E-3,-1.2769938E-3,6.0287517E-2,-2.2176658E-3,-1.0154578E-2,-4.5498726E-3,8.098232E-3,2.2892525E-2,-1.2189941E-3,-2.1748014E-2,-1.1304389E-2,2.5745187E-2,-9.970686E-3,-3.8745576E-3,2.1574322E-2,-9.7796E-3,5.303793E-3,3.087141E-2,7.826638E-3,-6.104533E-3,1.2618147E-2,7.1718036E-3,-4.8297914E-3,2.5616178E-2,-2.3045293E-3,1.3867606E-3,-1.6916437E-2,1.4363388E-2,-6.1889132E-3,1.9438336E-2,3.429249E-2,-3.2418042E-3,1.7890153E-2,1.647819E-2,8.331531E-4,-1.4073672E-2,5.817652E-4,6.052929E-4,-1.48328645E-2,4.64527E-3,-1.0634972E-2,-1.6420363E-2,1.20263E-2,-4.089836E-3,-1.3449653E-2],"split_indices":[0,4,3,4,0,2,2,2,0,3,3,2,4,3,2,3,3,3,2,3,4,3,3,2,2,3,0,4,0,0,0,0,3,2,2,3,2,3,3,4,3,3,3,2,2,4,2,0,4,0,0,2,0,4,0,0,0,2,0,3,0,0,0,0,0,0,0,0,0,0,0,0,0,0,0,0,0,0,0,0,0,0,0,0,0,0,0,0,0,0,0,0,0,0,0,0,0,0,0,0,0,0,0,0,0,0,0,0,0,0,0,0,0,0,0,0,0],"split_type":[0,0,0,0,0,0,0,0,0,0,0,0,0,0,0,0,0,0,0,0,0,0,0,0,0,0,0,0,0,0,0,0,0,0,0,0,0,0,0,0,0,0,0,0,0,0,0,0,0,0,0,0,0,0,0,0,0,0,0,0,0,0,0,0,0,0,0,0,0,0,0,0,0,0,0,0,0,0,0,0,0,0,0,0,0,0,0,0,0,0,0,0,0,0,0,0,0,0,0,0,0,0,0,0,0,0,0,0,0,0,0,0,0,0,0,0,0],"sum_hessian":[1.5534E4,9.406E3,6.128E3,8.845E3,5.61E2,5.503E3,6.25E2,3.677E3,5.168E3,2.9E2,2.71E2,5.048E3,4.55E2,1.8E1,6.07E2,2.428E3,1.249E3,3.804E3,1.364E3,2.62E2,2.8E1,1.38E2,1.33E2,1.247E3,3.801E3,3.56E2,9.9E1,1E1,8E0,3.48E2,2.59E2,7.37E2,1.691E3,7.84E2,4.65E2,2.415E3,1.389E3,1.1E1,1.353E3,2.05E2,5.7E1,1.8E1,1E1,8.3E1,5.5E1,6.4E1,6.9E1,6.16E2,6.31E2,2.754E3,1.047E3,1.82E2,1.74E2,6.4E1,3.5E1,9E0,1E0,2.29E2,1.19E2,1.55E2,1.04E2,3.63E2,3.74E2,2E2,1.491E3,7.76E2,8E0,1.49E2,3.16E2,1.643E3,7.72E2,4E0,1.385E3,5E0,6E0,1.188E3,1.65E2,1.51E2,5.4E1,3.3E1,2.4E1,9E0,9E0,2E0,8E0,1.3E1,7E1,4.6E1,9E0,5.9E1,5E0,2.9E1,4E1,3.01E2,3.15E2,5.22E2,1.09E2,2.669E3,8.5E1,7.55E2,2.92E2,5.3E1,1.29E2,2.2E1,1.52E2,2.8E1,3.6E1,3.4E1,1E0,3.3E1,1.96E2,4.8E1,7.1E1,2.6E1,1.29E2,3.8E1,6.6E1],"tree_param":{"num_deleted":"0","num_feature":"6","num_nodes":"117","size_leaf_vector":"1"}},{"base_weights":[-1.8197811E-3,-5.4821353E-2,1.1203781E-1,-6.688117E-2,1.0498012E-1,1.3404512E-1,-4.2123638E-2,-9.239631E-3,-8.81053E-2,1.914095E-1,-6.0523584E-2,